{"learner":{"attributes":{"scikit_learn":"{\"_estimator_type\": \"classifier\"}"},"feature_names":["ph","Hardness","Solids","Chloramines","Sulfate","Conductivity","Organic_carbon","Trihalomethanes","Turbidity"],"feature_types":["float","float","float","float","float","float","float","float","float"],"gradient_booster":{"model":{"cats":{"enc":[],"feature_segments":[],"sorted_idx":[]},"gbtree_model_param":{"num_parallel_tree":"1","num_trees":"100"},"iteration_indptr":[0,1,2,3,4,5,6,7,8,9,10,11,12,13,14,15,16,17,18,19,20,21,22,23,24,25,26,27,28,29,30,31,32,33,34,35,36,37,38,39,40,41,42,43,44,45,46,47,48,49,50,51,52,53,54,55,56,57,58,59,60,61,62,63,64,65,66,67,68,69,70,71,72,73,74,75,76,77,78,79,80,81,82,83,84,85,86,87,88,89,90,91,92,93,94,95,96,97,98,99,100],"tree_info":[0,0,0,0,0,0,0,0,0,0,0,0,0,0,0,0,0,0,0,0,0,0,0,0,0,0,0,0,0,0,0,0,0,0,0,0,0,0,0,0,0,0,0,0,0,0,0,0,0,0,0,0,0,0,0,0,0,0,0,0,0,0,0,0,0,0,0,0,0,0,0,0,0,0,0,0,0,0,0,0,0,0,0,0,0,0,0,0,0,0,0,0,0,0,0,0,0,0,0,0],"trees":[{"base_weights":[-8.738149E-8,1.3755062E0,-4.4767443E-2,-3.575861E-1,1.7771816E0,5.579925E-2,-4.570916E-1,4.7872666E-2,-9.646388E-2,2.7102947E-2,1.9519078E0,-5.953196E-2,8.289876E-1,5.2217585E-1,-6.770939E-1,6.8291895E-2,2.0729266E-1,-2.718656E-1,2.0557646E-1,1.3645902E0,4.0891376E-1,-5.9236687E-2,1.7357145E-1,6.341142E-1,-7.822464E-1,1.6597314E-1,-4.4286963E-1,-8.448317E-3,5.6466675E-1,1.570565E0,3.649889E-1,-2.4652755E-1,9.3939334E-1,1.2121371E-1,-4.8118982E-1,1.1259298E0,-5.527494E-2,-8.595651E-1,2.0720436E-1,3.2261297E-1,-6.373193E-1,-1.6258356E-1,-7.4752283E-1,7.3817754E-1,-1.4972094E-1,3.4186363E-1,1.2537885E0,1.9525146E-1,1.8122448E0,1.2257761E-1,-4.8157092E-2,-5.815352E-1,9.162551E-1,1.126689E0,-5.527494E-2,-8.2439804E-1,6.4652026E-2,1.6796559E-1,1.0041393E-2,-9.5280325E-1,-1.3133998E-1,-8.590364E-2,1.2121371E-1,-4.9095165E-2,6.3194466E-1,4.7872666E-2,-8.806331E-1,-5.067511E-1,3.2352248E-1,-1.2548108E0,-4.4292846E-1,1.0677335E0,-7.9986446E-2,-3.8938853E-1,1.4794977E-1,3.9122705E-3,7.1535254E-1,1.5102546E0,1.9525146E-1,1.09480835E-1,-8.912219E-2,4.7872666E-2,1.8981437E-1,1.3389961E-1,-1.200006E-1,1.3920258E-1,2.2077155E-3,1.301183E0,-4.3457236E-2,-1.0564325E0,-4.2236815E-3,-5.485319E-1,-1.0656441E0,1.5066978E-1,-6.847105E-1,5.121034E-1,-5.815352E-1,1.0993092E0,1.9209344E-2,-1.0564325E0,2.2077155E-3,-7.923182E-1,5.1573817E-2,4.8140648E-1,-9.104236E-2,-1.3745319E0,4.7872666E-2,2.5759348E-1,-5.7958376E-1,1.3389961E-1,1.678199E0,7.48089E-1,-4.8191598E-1,1.5773454E-1,-1.615638E-2,-4.2904878E-1,6.794289E-1,1.002868E0,-3.241725E-1,2.7102947E-2,1.6841791E0,-5.527494E-2,9.353762E-2,9.162551E-1,-6.3400483E-1,6.490496E-1,1.5681041E0,-1.3151477E-1,2.2077155E-3,4.733097E-2,-7.669894E-1,-1.0972157E0,2.2077155E-3,-1.2148257E-1,-1.8150214E-2,1.084812E0,-3.241725E-1,-9.0982103E-1,6.4652026E-2,-4.2236815E-3,1.292451E0,5.358625E-1,-7.205625E-1,-4.8157092E-2,-1.2395557E-1,-9.6918267E-1,9.908988E-2,3.8199103E-1,-1.1549183E-1,7.65858E-1,-3.419316E-1,-1.4865723E0,-7.205625E-1,-4.3761548E-1,1.6008967E-1,4.733097E-2,-6.6630673E-1,-9.104236E-2,1.2121371E-1,1.8303116E-1,4.7872666E-2,1.3920258E-1,-1.4085995E-2,-6.940947E-1,1.46078E-1,9.53266E-1,-2.8122163E-1,2.7021712E-1,-1.0529522E0,1.508019E-1,1.7868371E-1,5.668298E-1,1.473775E0,-9.104236E-2,6.8291895E-2,1.9680198E-1,7.48089E-1,1.3920258E-1,2.2077155E-3,2.2077155E-3,-9.646388E-2,1.2121371E-1,-1.6327737E-2,1.8128744E0,2.2077155E-3,1.5501618E-2,-9.7905093E-1,-1.4618687E-1,-8.6434543E-1,9.353762E-2,-7.30994E-2,2.2613088E-2,1.8039009E-1,-9.554676E-2,9.353762E-2,2.7102947E-2,-1.165208E-1,5.7299454E-2,1.5751491E-1,3.3576766E-3,1.5066978E-1,-9.554676E-2,2.2077155E-3,-1.265228E-1,-4.6515007E-2,7.728144E-2,-3.241725E-2,1.5095623E-1,3.9487567E-2,-8.4361225E-2,3.413232E-2,-1.5376697E-1,-4.3457236E-2,-1.118158E-1,-4.2236815E-3,-1.118158E-1,3.244913E-2,3.0214174E-2,-7.38908E-2,-9.19606E-2,-1.09951645E-2,-3.8224887E-2,1.0470382E-1,1.373493E-1,-2.7470676E-2,-5.2361943E-2,4.6648182E-2,8.008524E-2,-1.0249481E-1,-1.4085995E-2,-1.2323731E-1,1.1098968E-1,-4.6703354E-2,-5.527494E-2,8.2363844E-2,1.596225E-1,4.7872666E-2,2.2077155E-3,1.09480835E-1,4.755346E-2,2.117108E-1,-1.3868521E-1,-1.8709822E-2,-3.9606497E-2,-1.21228255E-1],"categories":[],"categories_nodes":[],"categories_segments":[],"categories_sizes":[],"default_left":[0,0,1,0,0,1,0,0,0,0,0,1,0,0,0,0,0,0,0,0,0,0,0,1,0,1,0,0,0,0,0,0,0,0,0,0,0,0,0,0,0,0,0,0,1,0,0,0,1,0,0,0,0,0,0,0,0,0,0,0,0,0,0,0,1,0,0,1,0,0,0,0,0,0,0,0,0,0,0,0,0,0,0,0,0,0,0,0,0,0,0,0,0,0,0,0,0,0,0,0,0,0,0,0,0,0,0,0,0,0,0,0,0,0,0,0,0,0,0,0,1,0,0,0,0,0,0,0,0,0,1,1,0,0,0,0,0,0,0,0,0,0,0,0,0,0,0,0,0,0,0,0,0,0,0,0,0,0,0,0,0,0,0,0,0,0,0,0,0,0,0,0,0,0,0,0,0,0,0,0,0,0,0,0,0,0,0,0,0,0,0,0,0,0,0,0,0,0,0,0,0,0,0,0,0,0,0,0,0,0,0,0,0,0,0,0,0,0,0,0,0,0,0,0,0,0,0,0,0,0,0,0,0,0,0,0,0,0,0,0,0,0,0,0,0],"id":0,"left_children":[1,3,5,7,9,11,13,-1,-1,-1,15,17,19,21,23,-1,-1,25,27,29,31,33,-1,35,37,39,41,43,45,47,49,51,53,-1,55,57,-1,59,61,63,65,67,69,71,73,75,77,79,81,-1,-1,83,85,87,-1,89,-1,-1,-1,91,93,-1,-1,95,97,-1,99,101,103,105,107,109,-1,111,113,115,117,119,121,-1,-1,-1,-1,123,-1,-1,-1,125,-1,127,-1,129,131,-1,133,135,137,139,141,143,-1,145,147,149,-1,151,-1,153,155,157,159,161,163,-1,165,167,169,171,173,-1,175,-1,-1,177,179,181,183,-1,-1,-1,185,187,-1,-1,189,191,193,195,-1,-1,197,199,201,-1,-1,203,-1,205,-1,207,209,211,213,215,-1,-1,217,-1,-1,-1,-1,-1,-1,219,221,223,225,227,229,-1,231,233,235,-1,-1,-1,237,-1,-1,-1,-1,-1,-1,239,-1,-1,241,-1,243,-1,-1,-1,-1,-1,-1,-1,-1,-1,-1,-1,-1,-1,-1,-1,-1,-1,-1,-1,-1,-1,-1,-1,-1,-1,-1,-1,-1,-1,-1,-1,-1,-1,-1,-1,-1,-1,-1,-1,-1,-1,-1,-1,-1,-1,-1,-1,-1,-1,-1,-1,-1,-1,-1,-1,-1],"loss_changes":[2.8917929E1,1.0940054E1,1.8884853E1,2.2984533E0,2.677555E0,3.2733486E1,1.9589834E1,0E0,0E0,0E0,2.3631287E-1,1.8062584E1,1.016124E1,1.2058056E1,1.0608429E1,0E0,0E0,1.3404621E1,1.0981991E1,3.6503983E0,1.00119505E1,7.247545E0,0E0,4.123163E0,5.4067993E0,6.5896335E0,1.0835321E1,9.653911E0,7.7632656E0,5.199051E0,4.0936065E0,5.7427835E0,5.0256605E0,0E0,4.420012E0,2.4262033E0,0E0,4.1923065E0,7.212525E0,4.989145E0,2.761015E0,1.1558595E1,8.901752E0,8.236336E0,5.5447598E0,5.2597775E0,3.1422215E0,4.511456E0,7.051163E-1,0E0,0E0,5.025634E0,1.407083E0,4.4684315E0,0E0,1.4325461E0,0E0,0E0,0E0,1.9796486E0,8.625054E0,0E0,0E0,6.4274116E0,6.739353E0,0E0,1.2016811E0,6.460762E0,6.0574484E0,5.310581E0,3.9583516E0,6.857134E0,0E0,4.8738813E0,8.242584E0,6.987221E0,6.2428713E0,1.7081146E0,2.5198374E0,0E0,0E0,0E0,0E0,4.1840096E0,0E0,0E0,0E0,1.2688847E0,0E0,1.7688775E0,0E0,3.5611067E0,1.4968681E0,0E0,2.433518E0,5.389617E0,5.0208273E0,3.0034199E0,4.67937E0,5.94697E-2,0E0,9.381542E0,6.2472215E0,6.403784E0,0E0,4.8420334E-1,0E0,7.412618E0,3.3835936E0,7.85683E0,4.7855568E-1,2.2669487E0,5.466646E0,0E0,8.596773E0,6.638618E0,3.6012783E0,2.3995066E0,3.6006722E0,0E0,8.167896E-1,0E0,0E0,1.407083E0,8.0605865E-1,2.7235012E0,3.220127E0,0E0,0E0,0E0,2.5341473E0,2.2769089E0,0E0,0E0,3.466267E0,3.589182E0,4.9056635E0,3.0574365E0,0E0,0E0,1.4304829E0,3.4541965E0,9.012866E-1,0E0,0E0,3.111641E0,0E0,3.613327E0,0E0,4.8667097E0,2.8331442E0,2.5538635E-1,1.3135493E0,3.226527E0,0E0,0E0,2.4352617E0,0E0,0E0,0E0,0E0,0E0,0E0,3.886465E0,5.6337953E0,4.0861435E0,4.99734E0,6.0874696E0,1.1194286E0,0E0,4.6969852E0,3.274372E0,8.257389E-2,0E0,0E0,0E0,8.864858E-1,0E0,0E0,0E0,0E0,0E0,0E0,2.014309E0,0E0,0E0,2.9839897E0,0E0,4.064184E0,0E0,0E0,0E0,0E0,0E0,0E0,0E0,0E0,0E0,0E0,0E0,0E0,0E0,0E0,0E0,0E0,0E0,0E0,0E0,0E0,0E0,0E0,0E0,0E0,0E0,0E0,0E0,0E0,0E0,0E0,0E0,0E0,0E0,0E0,0E0,0E0,0E0,0E0,0E0,0E0,0E0,0E0,0E0,0E0,0E0,0E0,0E0,0E0,0E0,0E0,0E0,0E0,0E0,0E0,0E0,0E0],"parents":[2147483647,0,0,1,1,2,2,3,3,4,4,5,5,6,6,10,10,11,11,12,12,13,13,14,14,17,17,18,18,19,19,20,20,21,21,23,23,24,24,25,25,26,26,27,27,28,28,29,29,30,30,31,31,32,32,34,34,35,35,37,37,38,38,39,39,40,40,41,41,42,42,43,43,44,44,45,45,46,46,47,47,48,48,51,51,52,52,53,53,55,55,59,59,60,60,63,63,64,64,66,66,67,67,68,68,69,69,70,70,71,71,73,73,74,74,75,75,76,76,77,77,78,78,83,83,87,87,89,89,91,91,92,92,94,94,95,95,96,96,97,97,98,98,99,99,101,101,102,102,103,103,105,105,107,107,108,108,109,109,110,110,111,111,112,112,114,114,115,115,116,116,117,117,118,118,120,120,123,123,124,124,125,125,126,126,130,130,131,131,134,134,135,135,136,136,137,137,140,140,141,141,142,142,145,145,147,147,149,149,150,150,151,151,152,152,153,153,156,156,163,163,164,164,165,165,166,166,167,167,168,168,170,170,171,171,172,172,176,176,183,183,186,186,188,188],"right_children":[2,4,6,8,10,12,14,-1,-1,-1,16,18,20,22,24,-1,-1,26,28,30,32,34,-1,36,38,40,42,44,46,48,50,52,54,-1,56,58,-1,60,62,64,66,68,70,72,74,76,78,80,82,-1,-1,84,86,88,-1,90,-1,-1,-1,92,94,-1,-1,96,98,-1,100,102,104,106,108,110,-1,112,114,116,118,120,122,-1,-1,-1,-1,124,-1,-1,-1,126,-1,128,-1,130,132,-1,134,136,138,140,142,144,-1,146,148,150,-1,152,-1,154,156,158,160,162,164,-1,166,168,170,172,174,-1,176,-1,-1,178,180,182,184,-1,-1,-1,186,188,-1,-1,190,192,194,196,-1,-1,198,200,202,-1,-1,204,-1,206,-1,208,210,212,214,216,-1,-1,218,-1,-1,-1,-1,-1,-1,220,222,224,226,228,230,-1,232,234,236,-1,-1,-1,238,-1,-1,-1,-1,-1,-1,240,-1,-1,242,-1,244,-1,-1,-1,-1,-1,-1,-1,-1,-1,-1,-1,-1,-1,-1,-1,-1,-1,-1,-1,-1,-1,-1,-1,-1,-1,-1,-1,-1,-1,-1,-1,-1,-1,-1,-1,-1,-1,-1,-1,-1,-1,-1,-1,-1,-1,-1,-1,-1,-1,-1,-1,-1,-1,-1,-1,-1],"split_conditions":[2.5912213E2,6.64647E0,8.141861E0,2.2098515E2,1.3652602E4,3.7281506E2,3.1643387E2,4.7872666E-2,-9.646388E-2,2.7102947E-2,3.6312936E2,6.5480175E0,6.823642E0,7.6640606E0,1.3800768E2,6.8291895E-2,2.0729266E-1,6.329791E0,7.5107756E0,2.685395E4,7.623604E0,2.844059E2,1.7357145E-1,3.4973465E2,3.1429379E4,6.2035728E0,2.1875217E4,3.0178723E2,2.9057229E4,4.7364044E0,3.7734436E2,2.1726685E2,2.95677E4,1.2121371E-1,2.7716338E4,6.456404E1,-5.527494E-2,8.643088E0,6.19491E0,1.3937968E1,1.593994E2,3.522507E2,5.583833E0,7.808856E0,6.673505E1,3.5173892E2,8.867293E0,3.8900568E2,3.524368E1,1.2257761E-1,-4.8157092E-2,3.9106903E2,7.781664E0,2.5146284E2,-5.527494E-2,4.299732E0,6.4652026E-2,1.6796559E-1,1.0041393E-2,1.250366E1,3.3691415E2,-8.590364E-2,1.2121371E-1,1.1440746E1,6.896902E1,4.7872666E-2,6.060713E0,5.8973913E0,9.345621E0,2.4934006E2,1.6804076E2,7.1214585E0,-7.9986446E-2,9.60974E3,2.8770628E0,4.2431335E0,4.6643505E0,2.9069067E2,7.264069E0,1.09480835E-1,-8.912219E-2,4.7872666E-2,1.8981437E-1,7.250852E1,-1.200006E-1,1.3920258E-1,2.2077155E-3,3.8921957E2,-4.3457236E-2,7.3315682E0,-4.2236815E-3,1.6918874E2,3.0575947E4,1.5066978E-1,4.3791864E2,3.9965813E0,9.03949E1,4.286468E1,2.632169E4,1.2701423E1,2.2077155E-3,5.075844E0,1.8505373E1,4.777234E2,-9.104236E-2,3.7356746E4,4.7872666E-2,8.669944E0,2.913537E2,2.4160354E4,7.6647935E0,2.1647318E2,4.4780703E0,1.5773454E-1,7.026636E1,3.1822794E2,1.9771219E2,7.182128E1,5.0494637E0,2.7102947E-2,3.2535385E2,-5.527494E-2,9.353762E-2,5.5655293E0,7.348937E0,8.330389E0,4.3430595E0,-1.3151477E-1,2.2077155E-3,4.733097E-2,4.4289013E1,3.1846515E2,2.2077155E-3,-1.2148257E-1,4.794025E2,2.153252E4,1.1079951E1,4.4289013E1,6.4652026E-2,-4.2236815E-3,1.717779E4,2.176864E4,2.0758896E2,-4.8157092E-2,-1.2395557E-1,1.46389265E1,9.908988E-2,4.3204477E2,-1.1549183E-1,3.7114777E2,7.7142916E0,2.2994124E2,3.3563873E2,1.5515752E2,1.6008967E-1,4.733097E-2,6.519063E0,-9.104236E-2,1.2121371E-1,1.8303116E-1,4.7872666E-2,1.3920258E-1,-1.4085995E-2,1.6584572E1,2.0893146E2,7.7489285E0,1.5754785E1,2.2047612E2,7.631407E0,1.508019E-1,8.092377E0,1.8776562E2,7.8950458E0,-9.104236E-2,6.8291895E-2,1.9680198E-1,7.4979877E0,1.3920258E-1,2.2077155E-3,2.2077155E-3,-9.646388E-2,1.2121371E-1,-1.6327737E-2,1.7042757E2,2.2077155E-3,1.5501618E-2,4.1432247E0,-1.4618687E-1,3.8260632E0,9.353762E-2,-7.30994E-2,2.2613088E-2,1.8039009E-1,-9.554676E-2,9.353762E-2,2.7102947E-2,-1.165208E-1,5.7299454E-2,1.5751491E-1,3.3576766E-3,1.5066978E-1,-9.554676E-2,2.2077155E-3,-1.265228E-1,-4.6515007E-2,7.728144E-2,-3.241725E-2,1.5095623E-1,3.9487567E-2,-8.4361225E-2,3.413232E-2,-1.5376697E-1,-4.3457236E-2,-1.118158E-1,-4.2236815E-3,-1.118158E-1,3.244913E-2,3.0214174E-2,-7.38908E-2,-9.19606E-2,-1.09951645E-2,-3.8224887E-2,1.0470382E-1,1.373493E-1,-2.7470676E-2,-5.2361943E-2,4.6648182E-2,8.008524E-2,-1.0249481E-1,-1.4085995E-2,-1.2323731E-1,1.1098968E-1,-4.6703354E-2,-5.527494E-2,8.2363844E-2,1.596225E-1,4.7872666E-2,2.2077155E-3,1.09480835E-1,4.755346E-2,2.117108E-1,-1.3868521E-1,-1.8709822E-2,-3.9606497E-2,-1.21228255E-1],"split_indices":[4,0,0,1,2,4,4,0,0,0,5,0,0,3,1,0,0,3,3,2,3,4,0,4,2,0,2,4,2,0,4,1,2,0,2,7,0,3,3,6,1,4,0,0,7,4,3,5,7,0,0,4,0,1,0,8,0,0,0,6,5,0,0,6,7,0,3,0,3,1,1,0,0,2,8,8,8,4,0,0,0,0,0,7,0,0,0,4,0,3,0,1,2,0,5,8,7,7,2,6,0,8,6,5,0,2,0,3,5,2,0,1,8,0,7,4,1,7,8,0,4,0,0,3,0,3,8,0,0,0,7,4,0,0,5,2,6,7,0,0,2,2,1,0,0,6,0,5,0,4,3,1,4,1,0,0,3,0,0,0,0,0,0,6,1,0,6,1,3,0,3,1,0,0,0,0,0,0,0,0,0,0,0,1,0,0,8,0,8,0,0,0,0,0,0,0,0,0,0,0,0,0,0,0,0,0,0,0,0,0,0,0,0,0,0,0,0,0,0,0,0,0,0,0,0,0,0,0,0,0,0,0,0,0,0,0,0,0,0,0,0,0,0,0,0],"split_type":[0,0,0,0,0,0,0,0,0,0,0,0,0,0,0,0,0,0,0,0,0,0,0,0,0,0,0,0,0,0,0,0,0,0,0,0,0,0,0,0,0,0,0,0,0,0,0,0,0,0,0,0,0,0,0,0,0,0,0,0,0,0,0,0,0,0,0,0,0,0,0,0,0,0,0,0,0,0,0,0,0,0,0,0,0,0,0,0,0,0,0,0,0,0,0,0,0,0,0,0,0,0,0,0,0,0,0,0,0,0,0,0,0,0,0,0,0,0,0,0,0,0,0,0,0,0,0,0,0,0,0,0,0,0,0,0,0,0,0,0,0,0,0,0,0,0,0,0,0,0,0,0,0,0,0,0,0,0,0,0,0,0,0,0,0,0,0,0,0,0,0,0,0,0,0,0,0,0,0,0,0,0,0,0,0,0,0,0,0,0,0,0,0,0,0,0,0,0,0,0,0,0,0,0,0,0,0,0,0,0,0,0,0,0,0,0,0,0,0,0,0,0,0,0,0,0,0,0,0,0,0,0,0,0,0,0,0,0,0,0,0,0,0,0,0],"sum_hessian":[4.676163E2,1.3802415E1,4.538139E2,2.6176994E0,1.1184716E1,3.6552603E2,8.8287865E1,1.1898634E0,1.4278361E0,1.4278361E0,9.75688E0,3.188834E2,4.6642643E1,1.5944169E1,7.23437E1,1.4278361E0,8.329043E0,1.7705167E2,1.4183171E2,1.951376E1,2.7128885E1,1.14226885E1,4.521481E0,4.997426E0,6.734627E1,4.973629E1,1.27315384E2,8.947773E1,5.235399E1,1.5706197E1,3.8075628E0,1.2374579E1,1.4754306E1,2.379727E0,9.042962E0,3.56959E0,1.4278361E0,6.2586815E1,4.759454E0,4.2121162E1,7.6151257E0,6.710829E1,6.020709E1,1.3564443E1,7.5913284E1,4.069333E1,1.1660661E1,2.6176994E0,1.3088497E1,1.6658087E0,2.1417542E0,9.994852E0,2.379727E0,1.3326469E1,1.4278361E0,7.13918E0,1.9037814E0,1.9037814E0,1.6658087E0,5.520966E1,7.377153E0,2.379727E0,2.379727E0,1.951376E1,2.2607405E1,1.1898634E0,6.4252625E0,3.926549E1,2.7842804E1,2.1417542E1,3.8789547E1,1.14226885E1,2.1417542E0,4.188319E1,3.4030094E1,2.1893486E1,1.879984E1,9.042962E0,2.6176994E0,1.4278361E0,1.1898634E0,1.1898634E0,1.1898634E1,4.997426E0,4.997426E0,1.1898634E0,1.1898634E0,1.2136606E1,1.1898634E0,5.235399E0,1.9037814E0,1.3326469E1,4.188319E1,1.4278361E0,5.949317E0,9.518908E0,9.994852E0,1.2374579E1,1.0232825E1,5.235399E0,1.1898634E0,2.570105E1,1.3564443E1,2.5225103E1,2.6176994E0,2.0227678E1,1.1898634E0,6.1872897E0,3.2602257E1,4.997426E0,6.4252625E0,2.6176994E0,3.926549E1,2.6176994E0,3.1412394E1,1.3564443E1,8.329043E0,1.4754306E1,4.0455356E0,1.4278361E0,7.6151257E0,1.4278361E0,1.1898634E0,2.379727E0,2.6176994E0,4.521481E0,7.6151257E0,4.0455356E0,1.1898634E0,2.1417542E0,1.1184716E1,4.069333E1,1.1898634E0,2.8556721E0,3.0936449E0,5.4733715E0,4.0455356E0,8.091071E0,1.9037814E0,1.9037814E0,1.0470798E1,6.1872897E0,4.0455356E0,2.1417542E0,3.0936449E0,2.3797268E1,1.9037814E0,1.1184716E1,2.379727E0,1.879984E1,6.4252625E0,1.6182142E1,4.0455356E0,4.521481E0,1.6658087E0,2.1417542E0,3.0460503E1,2.6176994E0,2.379727E0,5.235399E0,1.1898634E0,1.1898634E0,1.4278361E0,2.927064E1,9.994852E0,6.1872897E0,2.5225103E1,6.6632347E0,6.9012074E0,2.379727E0,5.949317E0,8.804989E0,5.949317E0,2.6176994E0,1.4278361E0,4.997426E0,2.6176994E0,1.1898634E0,1.1898634E0,1.1898634E0,1.4278361E0,2.379727E0,2.1417542E0,6.4252625E0,1.1898634E0,2.1417542E0,9.042962E0,1.3802415E1,2.6890913E1,1.1898634E0,1.9037814E0,3.0936449E0,2.379727E0,2.8556721E0,1.1898634E0,1.4278361E0,6.6632347E0,3.8075628E0,6.6632347E0,4.759454E0,1.4278361E0,2.8556721E0,1.1898634E0,1.4040388E1,9.75688E0,7.13918E0,4.0455356E0,5.235399E0,1.3564443E1,3.56959E0,2.8556721E0,1.4992279E1,1.1898634E0,2.1417542E0,1.9037814E0,2.1417542E0,2.379727E0,1.9037814E0,2.855672E1,2.0703623E1,8.567017E0,6.6632347E0,3.3316174E0,4.521481E0,1.6658087E0,1.9275787E1,5.949317E0,4.997426E0,1.6658087E0,1.4278361E0,5.4733715E0,2.1417542E0,3.8075628E0,1.4278361E0,7.377153E0,4.759454E0,1.1898634E0,1.1898634E0,1.4278361E0,1.6658087E0,4.759454E0,5.4733715E0,3.56959E0,1.2374579E1,1.4516334E1],"tree_param":{"num_deleted":"0","num_feature":"9","num_nodes":"245","size_leaf_vector":"1"}},{"base_weights":[3.4369878E-3,1.2273996E0,-3.740036E-2,-3.3773258E-1,1.57925E0,5.4368388E-2,-4.1768098E-1,4.5013633E-2,-9.2104934E-2,2.541784E-2,1.7281301E0,-9.50569E-2,5.557801E-1,4.792167E-1,-6.2372786E-1,1.9114119E-1,7.7050164E-2,-3.103368E-1,2.0806818E-1,3.100745E-1,1.121008E0,-5.0328568E-2,1.5514275E-1,5.859617E-1,-7.233685E-1,4.0297136E-1,-3.9318222E-1,6.7057826E-2,7.2341335E-1,8.2936555E-1,-6.598725E-2,1.4073076E0,-2.8961904E-2,1.1075526E-1,-4.4558513E-1,1.0371377E0,-5.2438255E-2,-7.96414E-1,1.9141671E-1,-6.654579E-1,8.4603655E-1,-1.0309668E0,-2.9800248E-1,2.5441286E-1,-3.5467055E-1,1.100885E0,-2.0750222E-1,1.1284919E0,-1.2165194E-1,-5.6617564E-1,4.5373732E-1,5.9892493E-1,1.6058918E0,7.619521E-2,-6.729367E-1,-7.7192414E-1,5.9863772E-2,1.5369928E-1,9.400436E-3,-8.8515806E-1,-1.1427947E-1,-8.107835E-2,1.1075526E-1,2.9131029E-2,-1.215544E-1,1.2551187E0,-1.835293E-1,-1.1951307E0,2.808979E-2,-4.3684337E-1,-4.1167423E-2,4.2073265E-1,-3.5799295E-1,-8.476357E-1,2.34197E-1,3.622545E-1,1.4135572E0,-8.0828863E-1,8.60488E-1,1.3891058E0,-1.00907624E-1,-7.072365E-1,4.5997366E-1,5.8534575E-1,-8.11749E-1,8.527911E-1,-5.3596145E-1,-4.513314E-2,9.896594E-1,1.7261696E-1,2.483516E-2,-1.0038085E-1,3.7635316E-3,-9.936452E-1,-3.949305E-3,-1.33844E0,-7.6068974E-1,1.3938397E-1,-6.406001E-1,1.9783978E-1,1.6307388E-1,-7.106112E-2,4.5343887E-2,-7.0651394E-1,-1.4187233E-1,-2.7919024E-1,-1.012311E0,1.8408875E-1,-7.261202E-1,-1.6429225E-2,6.88179E-1,-6.7318726E-1,2.7764225E-1,5.739648E-1,-1.138308E0,1.2392687E-1,-1.062369E-1,9.8237497E-1,-5.5069816E-1,1.5657824E0,-3.5604113E-4,-1.2524158E-1,4.7840536E-2,1.3082267E-1,1.527991E-3,1.7021185E0,1.4320518E-1,8.322373E-2,-1.00598015E-1,-3.7493133E-3,-1.00053966E-1,9.315998E-2,-3.91208E-2,1.07148066E-1,-1.4370769E-2,-2.5740945E-1,-1.20398305E-1,-4.0390994E-2,1.0996665E0,-1.0810017E-1,8.2818225E-2,8.383094E-3,1.5204333E-1,6.447681E-3,-1.256764E-1,-3.8033225E-2,-1.4161573E-1,-1.217991E-1,-8.7002975E-1,-1.151449E-1,-1.1919995E-2,-5.312721E-2,9.076031E-2,-1.1051705E-1,1.879307E-2,-5.6799804E-3,-6.270483E-1,-1.2236906E0,7.168725E-3,-4.88529E-1,4.9957365E-1,4.6191886E-2,-9.6649337E-1,-3.5436735E-1,9.68899E-1,8.9075255E-1,-1.4697629E-1,4.3702345E-2,-9.498044E-1,-7.133302E-2,9.880052E-1,9.146672E-2,-2.4786189E-3,-3.564771E-3,-1.3118004E0,-5.956147E-1,6.260666E-1,1.6487172E-1,-4.3583814E-2,3.4235902E-3,-8.825314E-2,1.9141889E-1,7.775692E-1,1.915359E-1,7.379793E-1,8.306459E-2,-6.0869332E-2,-7.535917E-1,2.6499164E-1,2.0156232E-1,1.4132604E-1,5.8813816E-1,-6.520436E-1,-3.352302E-1,-1.0226852E0,8.752223E-2,-6.9124244E-2,-1.6809238E-2,8.80717E-2,6.260035E-2,-7.576045E-2,-3.4589425E-2,-1.3238959E-1,-8.597555E-2,6.537812E-2,7.859206E-2,-9.1964476E-2,6.462839E-2,-9.956187E-2,-3.3872474E-3,-1.17574394E-1,-9.0645486E-4,-9.834927E-2,1.4547217E-1,-4.403976E-2,2.1968458E-2,1.3292575E-1,-6.39862E-2,1.07076935E-1,-1.3295293E-1,-8.921888E-3,2.6259036E-3,1.4423728E-1,-1.4354268E-1,-6.331773E-2,3.0808358E-2,-9.641794E-2,1.3474792E-1,5.3858543E-3,-8.147112E-3,1.3209936E-1,-2.0455645E-2,1.3752757E-1,-1.03567936E-1,-1.0339103E-2,-6.2051352E-2,9.784126E-2,8.1199564E-2,-5.561092E-2,-1.4391956E-2,1.0765304E-1,-1.13846116E-1,3.4658313E-2,-8.1911035E-2,1.5380447E-1,-5.199448E-2,-1.24542594E-1],"categories":[],"categories_nodes":[],"categories_segments":[],"categories_sizes":[],"default_left":[0,0,1,0,0,1,0,0,0,0,0,1,0,0,0,0,0,0,0,0,0,0,0,1,0,1,0,0,1,0,0,1,0,0,0,0,0,0,0,0,0,0,0,0,0,1,0,0,0,0,0,0,0,0,0,0,0,0,0,0,0,0,0,0,0,0,0,0,0,0,0,0,0,0,0,1,0,0,0,0,0,0,0,0,0,0,0,0,0,0,0,0,0,0,0,0,0,0,0,0,0,0,0,0,0,0,0,0,0,0,0,0,0,0,0,0,0,0,0,0,0,0,0,0,0,0,0,0,0,0,0,0,0,0,0,1,0,0,0,0,0,0,0,0,0,0,0,0,0,0,0,0,0,0,0,0,0,0,0,0,0,0,0,0,0,0,1,0,0,0,0,0,0,0,0,0,0,0,0,0,0,0,0,0,0,0,0,0,0,0,0,0,0,1,0,0,0,0,0,0,0,0,0,0,0,0,0,0,0,0,0,0,0,0,0,0,0,0,0,0,0,0,0,0,0,0,0,0,0,0,0,0,0,0,0,0,0,0,0,0,0,0,0,0,0,0,0],"id":1,"left_children":[1,3,5,7,9,11,13,-1,-1,-1,15,17,19,21,23,-1,-1,25,27,29,31,33,-1,35,37,39,41,43,45,47,49,51,53,-1,55,57,-1,59,61,63,65,67,69,71,73,75,77,79,81,83,85,87,89,-1,91,93,-1,-1,-1,95,97,-1,-1,-1,-1,99,101,103,-1,105,107,109,111,113,115,117,119,121,123,125,127,129,131,133,135,137,139,-1,141,-1,-1,-1,-1,143,-1,145,147,-1,149,151,-1,-1,-1,153,-1,155,157,159,161,163,165,167,169,171,173,-1,175,177,179,181,-1,-1,-1,-1,-1,183,185,-1,-1,-1,-1,-1,-1,-1,-1,187,-1,-1,189,-1,-1,-1,-1,-1,-1,-1,-1,191,193,-1,195,-1,-1,-1,-1,197,199,201,203,205,207,-1,209,211,213,215,217,-1,219,-1,221,-1,-1,-1,223,225,227,-1,-1,-1,-1,-1,229,-1,231,-1,-1,233,235,237,-1,239,241,243,245,-1,-1,-1,-1,-1,-1,-1,-1,-1,-1,-1,-1,-1,-1,-1,-1,-1,-1,-1,-1,-1,-1,-1,-1,-1,-1,-1,-1,-1,-1,-1,-1,-1,-1,-1,-1,-1,-1,-1,-1,-1,-1,-1,-1,-1,-1,-1,-1,-1,-1,-1,-1],"loss_changes":[2.3386967E1,8.8527355E0,1.5826882E1,2.0675306E0,2.0287724E0,2.745344E1,1.659025E1,0E0,0E0,0E0,4.709816E-1,1.850638E1,1.1333586E1,9.74986E0,9.116909E0,0E0,0E0,9.947257E0,8.523277E0,1.1773395E1,8.305325E0,6.15534E0,0E0,3.5701165E0,4.6348E0,8.956396E0,8.7326355E0,7.495099E0,9.097429E0,7.3281994E0,9.545262E0,2.2678757E0,3.5603678E0,0E0,3.8480058E0,2.0388508E0,0E0,3.6710205E0,6.192488E0,3.3841026E0,5.694495E0,4.412735E0,4.652857E0,6.8192735E0,8.6881485E0,3.6719017E0,5.907529E0,6.3324814E0,2.6927667E0,5.7496367E0,7.596804E0,2.7293077E0,2.1113625E0,0E0,9.380542E-1,1.2610526E0,0E0,0E0,0E0,2.0844498E0,7.4983773E0,0E0,0E0,0E0,0E0,3.415227E0,1.8536607E0,8.56657E-1,0E0,7.4216137E0,7.3955193E0,6.0849495E0,3.0967155E0,7.3208084E0,4.9594955E0,4.35262E0,2.6770134E0,3.8645985E0,1.2700026E0,6.0015125E0,4.479555E0,7.203051E-1,2.0076299E0,1.5218852E0,3.1238556E0,4.560917E0,5.2141104E0,0E0,1.9723034E0,0E0,0E0,0E0,0E0,1.780725E0,0E0,2.4551201E-1,3.0697784E0,0E0,2.1875236E0,2.3479369E0,0E0,0E0,0E0,2.8228319E0,0E0,6.4698296E0,3.8619804E0,7.9291577E0,3.8305035E0,7.2342067E0,5.5876036E0,3.4864898E0,4.5923615E0,7.170539E-1,2.5801086E0,0E0,4.480171E0,4.8469105E0,6.831902E-1,1.5831432E0,0E0,0E0,0E0,0E0,0E0,1.1989479E0,2.7320101E0,0E0,0E0,0E0,0E0,0E0,0E0,0E0,0E0,2.225627E0,0E0,0E0,2.9143257E0,0E0,0E0,0E0,0E0,0E0,0E0,0E0,0E0,3.322018E0,2.812971E0,0E0,3.0657048E0,0E0,0E0,0E0,0E0,5.7768035E0,5.372216E0,8.45253E-1,2.8407068E0,7.3538036E0,6.159781E0,0E0,1.9466877E0,3.497692E0,4.4424815E0,7.388073E0,4.9793754E0,0E0,2.6007233E0,0E0,1.5509946E0,0E0,0E0,0E0,8.41732E-2,2.7559083E0,2.0238266E0,0E0,0E0,0E0,0E0,0E0,2.494291E0,0E0,2.640889E0,0E0,0E0,6.758578E-1,3.4797595E0,2.3506856E0,0E0,1.5361798E0,2.7955344E0,1.0388902E1,2.6652584E0,0E0,0E0,0E0,0E0,0E0,0E0,0E0,0E0,0E0,0E0,0E0,0E0,0E0,0E0,0E0,0E0,0E0,0E0,0E0,0E0,0E0,0E0,0E0,0E0,0E0,0E0,0E0,0E0,0E0,0E0,0E0,0E0,0E0,0E0,0E0,0E0,0E0,0E0,0E0,0E0,0E0,0E0,0E0,0E0,0E0,0E0,0E0,0E0,0E0,0E0,0E0,0E0],"parents":[2147483647,0,0,1,1,2,2,3,3,4,4,5,5,6,6,10,10,11,11,12,12,13,13,14,14,17,17,18,18,19,19,20,20,21,21,23,23,24,24,25,25,26,26,27,27,28,28,29,29,30,30,31,31,32,32,34,34,35,35,37,37,38,38,39,39,40,40,41,41,42,42,43,43,44,44,45,45,46,46,47,47,48,48,49,49,50,50,51,51,52,52,54,54,55,55,59,59,60,60,65,65,66,66,67,67,69,69,70,70,71,71,72,72,73,73,74,74,75,75,76,76,77,77,78,78,79,79,80,80,81,81,82,82,83,83,84,84,85,85,86,86,88,88,93,93,95,95,96,96,98,98,99,99,103,103,105,105,106,106,107,107,108,108,109,109,110,110,111,111,112,112,113,113,114,114,116,116,117,117,118,118,119,119,125,125,126,126,135,135,138,138,147,147,148,148,150,150,155,155,156,156,157,157,158,158,159,159,160,160,162,162,163,163,164,164,165,165,166,166,168,168,170,170,174,174,175,175,176,176,182,182,184,184,187,187,188,188,189,189,191,191,192,192,193,193,194,194],"right_children":[2,4,6,8,10,12,14,-1,-1,-1,16,18,20,22,24,-1,-1,26,28,30,32,34,-1,36,38,40,42,44,46,48,50,52,54,-1,56,58,-1,60,62,64,66,68,70,72,74,76,78,80,82,84,86,88,90,-1,92,94,-1,-1,-1,96,98,-1,-1,-1,-1,100,102,104,-1,106,108,110,112,114,116,118,120,122,124,126,128,130,132,134,136,138,140,-1,142,-1,-1,-1,-1,144,-1,146,148,-1,150,152,-1,-1,-1,154,-1,156,158,160,162,164,166,168,170,172,174,-1,176,178,180,182,-1,-1,-1,-1,-1,184,186,-1,-1,-1,-1,-1,-1,-1,-1,188,-1,-1,190,-1,-1,-1,-1,-1,-1,-1,-1,192,194,-1,196,-1,-1,-1,-1,198,200,202,204,206,208,-1,210,212,214,216,218,-1,220,-1,222,-1,-1,-1,224,226,228,-1,-1,-1,-1,-1,230,-1,232,-1,-1,234,236,238,-1,240,242,244,246,-1,-1,-1,-1,-1,-1,-1,-1,-1,-1,-1,-1,-1,-1,-1,-1,-1,-1,-1,-1,-1,-1,-1,-1,-1,-1,-1,-1,-1,-1,-1,-1,-1,-1,-1,-1,-1,-1,-1,-1,-1,-1,-1,-1,-1,-1,-1,-1,-1,-1,-1,-1],"split_conditions":[2.5912213E2,6.64647E0,8.141861E0,2.2098515E2,1.3652602E4,3.535294E2,3.1643387E2,4.5013633E-2,-9.2104934E-2,2.541784E-2,3.9184848E4,6.6282563E0,2.1026125E2,7.6640606E0,1.3800768E2,1.9114119E-1,7.7050164E-2,5.3608956E0,2.9228334E4,6.702496E0,2.685395E4,2.844059E2,1.5514275E-1,3.4973465E2,3.1429379E4,5.257745E1,4.642953E0,2.310341E4,3.199516E2,4.5963312E2,7.3031836E0,4.7364044E0,3.751473E2,1.1075526E-1,2.7716338E4,6.456404E1,-5.2438255E-2,8.643088E0,6.19491E0,3.63951E2,7.753619E1,2.3451186E2,7.412779E1,2.2248393E2,6.603725E1,5.7962635E1,7.558162E0,8.663918E1,2.310341E4,3.5617963E2,1.9236073E2,2.2098515E2,2.637646E2,7.619521E-2,3.857852E0,4.299732E0,5.9863772E-2,1.5369928E-1,9.400436E-3,1.2715814E4,3.3691415E2,-8.107835E-2,1.1075526E-1,2.9131029E-2,-1.215544E-1,1.3239355E1,4.317531E0,2.1820295E4,2.808979E-2,6.890609E1,4.4980693E0,1.9033527E2,4.280669E0,2.940304E2,3.4062104E0,4.549211E1,4.9616144E2,1.779474E1,7.8814483E0,2.73171E4,1.3475159E1,4.9616144E2,7.296282E0,5.8788347E0,6.6299164E1,1.1551216E4,3.8921957E2,-4.513314E-2,3.91847E0,1.7261696E-1,2.483516E-2,-1.0038085E-1,3.7635316E-3,2.9423482E0,-3.949305E-3,3.2722357E2,1.6977548E2,1.3938397E-1,4.3791864E2,6.037604E1,1.6307388E-1,-7.106112E-2,4.5343887E-2,4.5036607E0,-1.4187233E-1,7.5976534E0,4.9865082E2,3.4408588E0,1.20377705E4,2.0259727E4,2.0411664E4,2.9997022E0,1.5902945E4,5.84167E1,3.4861853E2,1.2392687E-1,1.5754785E1,4.534233E0,5.0747475E1,1.9679124E2,-3.5604113E-4,-1.2524158E-1,4.7840536E-2,1.3082267E-1,1.527991E-3,4.2656192E2,3.3296008E0,8.322373E-2,-1.00598015E-1,-3.7493133E-3,-1.00053966E-1,9.315998E-2,-3.91208E-2,1.07148066E-1,-1.4370769E-2,7.0153327E0,-1.20398305E-1,-4.0390994E-2,3.981819E2,-1.0810017E-1,8.2818225E-2,8.383094E-3,1.5204333E-1,6.447681E-3,-1.256764E-1,-3.8033225E-2,-1.4161573E-1,1.3711738E1,1.6304529E4,-1.151449E-1,4.794025E2,-5.312721E-2,9.076031E-2,-1.1051705E-1,1.879307E-2,7.296282E0,3.06024E2,3.1656325E0,6.276295E0,1.8173639E2,5.356526E2,4.6191886E-2,2.8543268E2,1.710644E4,1.6437716E1,1.5228913E4,7.963426E1,4.3702345E-2,1.5088699E1,-7.133302E-2,3.0664334E2,9.146672E-2,-2.4786189E-3,-3.564771E-3,4.3614864E0,1.1838313E1,3.79204E0,1.6487172E-1,-4.3583814E-2,3.4235902E-3,-8.825314E-2,1.9141889E-1,4.117288E0,1.915359E-1,1.7327281E2,8.306459E-2,-6.0869332E-2,1.7131554E2,3.9476797E2,3.4553638E2,1.4132604E-1,3.8030136E2,4.4411664E2,3.6959073E2,1.3114365E1,8.752223E-2,-6.9124244E-2,-1.6809238E-2,8.80717E-2,6.260035E-2,-7.576045E-2,-3.4589425E-2,-1.3238959E-1,-8.597555E-2,6.537812E-2,7.859206E-2,-9.1964476E-2,6.462839E-2,-9.956187E-2,-3.3872474E-3,-1.17574394E-1,-9.0645486E-4,-9.834927E-2,1.4547217E-1,-4.403976E-2,2.1968458E-2,1.3292575E-1,-6.39862E-2,1.07076935E-1,-1.3295293E-1,-8.921888E-3,2.6259036E-3,1.4423728E-1,-1.4354268E-1,-6.331773E-2,3.0808358E-2,-9.641794E-2,1.3474792E-1,5.3858543E-3,-8.147112E-3,1.3209936E-1,-2.0455645E-2,1.3752757E-1,-1.03567936E-1,-1.0339103E-2,-6.2051352E-2,9.784126E-2,8.1199564E-2,-5.561092E-2,-1.4391956E-2,1.0765304E-1,-1.13846116E-1,3.4658313E-2,-8.1911035E-2,1.5380447E-1,-5.199448E-2,-1.24542594E-1],"split_indices":[4,0,0,1,2,4,4,0,0,0,2,0,1,3,1,0,0,3,2,0,2,4,0,4,2,7,0,2,4,5,3,0,4,0,2,7,0,3,3,5,7,1,7,1,7,7,3,7,2,4,1,1,1,0,8,8,0,0,0,2,5,0,0,0,0,6,8,2,0,7,8,1,8,4,8,7,5,6,3,2,6,5,3,3,7,2,4,0,8,0,0,0,0,8,0,4,1,0,5,7,0,0,0,8,0,3,5,8,2,2,2,8,2,7,5,0,6,8,7,1,0,0,0,0,0,5,8,0,0,0,0,0,0,0,0,0,0,0,5,0,0,0,0,0,0,0,0,6,2,0,5,0,0,0,0,3,5,8,0,1,5,0,4,2,6,2,7,0,6,0,4,0,0,0,8,6,8,0,0,0,0,0,8,0,1,0,0,1,5,5,0,4,5,4,6,0,0,0,0,0,0,0,0,0,0,0,0,0,0,0,0,0,0,0,0,0,0,0,0,0,0,0,0,0,0,0,0,0,0,0,0,0,0,0,0,0,0,0,0,0,0,0,0,0,0,0,0],"split_type":[0,0,0,0,0,0,0,0,0,0,0,0,0,0,0,0,0,0,0,0,0,0,0,0,0,0,0,0,0,0,0,0,0,0,0,0,0,0,0,0,0,0,0,0,0,0,0,0,0,0,0,0,0,0,0,0,0,0,0,0,0,0,0,0,0,0,0,0,0,0,0,0,0,0,0,0,0,0,0,0,0,0,0,0,0,0,0,0,0,0,0,0,0,0,0,0,0,0,0,0,0,0,0,0,0,0,0,0,0,0,0,0,0,0,0,0,0,0,0,0,0,0,0,0,0,0,0,0,0,0,0,0,0,0,0,0,0,0,0,0,0,0,0,0,0,0,0,0,0,0,0,0,0,0,0,0,0,0,0,0,0,0,0,0,0,0,0,0,0,0,0,0,0,0,0,0,0,0,0,0,0,0,0,0,0,0,0,0,0,0,0,0,0,0,0,0,0,0,0,0,0,0,0,0,0,0,0,0,0,0,0,0,0,0,0,0,0,0,0,0,0,0,0,0,0,0,0,0,0,0,0,0,0,0,0,0,0,0,0,0,0,0,0,0,0,0,0],"sum_hessian":[4.6597635E2,1.4107114E1,4.5186923E2,2.596639E0,1.1510475E1,3.6471402E2,8.715521E1,1.2017653E0,1.3948736E0,1.4360979E0,1.0074377E1,2.816039E2,8.311012E1,1.6034254E1,7.112096E1,7.6199913E0,2.4543858E0,1.6464732E2,1.1695657E2,5.9007874E1,2.410225E1,1.1371259E1,4.6629953E0,5.040912E0,6.608005E1,1.6730633E1,1.479167E2,9.271714E1,2.4239431E1,2.4277916E1,3.4729958E1,1.9118643E1,4.9836063E0,2.4352436E0,8.936015E0,3.6313038E0,1.4096085E0,6.131357E1,4.766481E0,4.7571244E0,1.1973507E1,1.7931139E1,1.2998555E2,6.44719E1,2.8245241E1,1.7116411E1,7.1230197E0,1.832689E1,5.9510245E0,1.7652056E1,1.7077902E1,4.562385E0,1.4556257E1,2.1544104E0,2.8291957E0,7.006973E0,1.9290421E0,1.9618621E0,1.6694416E0,5.399174E1,7.321825E0,2.331237E0,2.4352436E0,1.908349E0,2.8487756E0,8.412037E0,3.5614698E0,1.6015924E1,1.9152148E0,8.391928E1,4.6066277E1,5.0948166E1,1.3523738E1,1.513537E1,1.310987E1,5.732651E0,1.138376E1,4.714242E0,2.4087777E0,1.5014202E1,3.3126884E0,2.8578033E0,3.093221E0,2.8595781E0,1.4792478E1,1.2269202E1,4.808699E0,1.1950696E0,3.3673155E0,1.31221E1,1.4341569E0,1.648779E0,1.1804167E0,5.1049623E0,1.9020104E0,9.530568E0,4.4461174E1,1.4677789E0,5.854046E0,2.605341E0,5.8066964E0,1.8855718E0,1.6758981E0,6.334018E0,9.681907E0,6.7038734E1,1.6880545E1,3.5216187E1,1.085009E1,1.9694519E1,3.1253647E1,9.001205E0,4.5225325E0,2.4039054E0,1.2731464E1,2.6489744E0,1.0460896E1,3.3685393E0,2.3641121E0,1.0184813E1,1.198948E0,3.5243764E0,1.1898656E0,1.2165232E0,1.1922545E0,1.1706863E1,3.3073387E0,1.6706719E0,1.6420164E0,1.213855E0,1.6439483E0,1.9295886E0,1.1636324E0,1.4338174E0,1.4257607E0,6.8159065E0,7.976571E0,1.9100659E0,1.0359137E1,3.5842009E0,1.2244983E0,1.6719227E0,1.6953928E0,1.1669737E0,3.9379885E0,1.1572803E0,8.373288E0,6.8060875E0,3.7655087E1,2.7709284E0,3.0831175E0,1.4092026E0,1.1961384E0,4.218311E0,2.1157072E0,3.8098984E1,2.893975E1,1.3815683E1,3.0648618E0,1.106882E1,2.4147367E1,1.6707537E0,9.179337E0,1.5141718E1,4.5528E0,2.5099092E1,6.1545544E0,1.6797191E0,7.321486E0,1.8865607E0,2.6359718E0,1.1958281E0,1.2080773E0,1.8947196E0,1.0836745E1,6.3823843E0,4.078511E0,2.181186E0,1.1873534E0,1.1803304E0,1.1837817E0,6.072241E0,4.1125717E0,8.778669E0,2.9281945E0,1.6730146E0,1.6343241E0,3.2687027E0,3.5472038E0,3.1061513E0,7.252985E0,2.8632872E0,3.9428003E0,9.071342E0,2.8583744E1,1.2119846E0,1.8711329E0,3.2884075E1,5.214906E0,2.3726485E0,2.6567102E1,1.8716761E0,1.1944008E1,1.1685444E0,1.8963174E0,2.589838E0,8.478982E0,2.2506733E1,1.6406327E0,1.8950511E0,7.2842855E0,1.0430968E1,4.71075E0,3.3616993E0,1.191101E0,1.0512392E1,1.45867E1,4.7190566E0,1.4354981E0,4.701905E0,2.6195815E0,1.1851637E0,1.4508082E0,8.223454E0,2.61329E0,1.8964654E0,4.485919E0,1.2047474E0,2.873764E0,1.9229182E0,2.1896534E0,1.4551344E0,1.4730601E0,1.8661973E0,1.4025053E0,1.6408246E0,1.9063792E0,1.6805133E0,1.4256381E0,1.4280633E0,1.435224E0,2.5571973E0,1.385603E0,7.656383E0,1.4149591E0,9.799634E0,1.8784111E1],"tree_param":{"num_deleted":"0","num_feature":"9","num_nodes":"247","size_leaf_vector":"1"}},{"base_weights":[4.6013016E-3,1.1110609E0,-3.2856256E-2,-3.199001E-1,1.4269472E0,5.04097E-2,-3.8228762E-1,4.2352274E-2,-8.814322E-2,2.3843843E-2,1.5586722E0,-4.69106E-2,6.878432E-1,4.4259217E-1,-5.754752E-1,6.6030043E-1,1.7387637E-1,-7.974751E-1,7.7665374E-3,8.27205E-1,-3.1524873E-1,-4.2706598E-2,1.4050381E-1,5.438285E-1,-6.69994E-1,-1.4082151E-2,1.1646668E-1,7.092326E-2,-9.636183E-1,-1.3843375E-1,1.882946E-1,1.0516257E0,2.2747542E-1,8.488478E-2,-7.3422086E-1,1.0176415E0,-4.135362E-1,9.610613E-1,-4.9781922E-2,-7.390199E-1,1.7717269E-1,3.4183186E-2,-1.1184311E0,1.2409877E-1,-3.6301526E-1,7.510128E-3,5.108937E-1,8.718691E-3,1.1214786E0,-7.764253E-1,1.1586537E0,-1.1950033E-1,3.52411E-2,3.4279656E-2,1.2373296E-1,-7.243116E-1,5.5517454E-2,1.4197089E-1,8.80095E-3,-8.233226E-1,-9.989366E-2,-7.66648E-2,1.0176415E0,-1.1975847E0,-9.476479E-4,1.4067153E-2,8.057114E-1,-5.3604054E-1,9.350335E-2,6.7844105E-1,-1.2932728E-1,3.220985E-1,1.1119148E0,1.4034293E0,7.284144E-1,2.8521879E-2,-1.1082764E-1,1.3516707E0,2.3536293E-2,-9.372178E-1,-3.6926907E-3,-1.2665436E0,-7.0337486E-1,1.2980433E-1,-6.016452E-1,1.2373296E-1,3.4279656E-2,-6.9685227E-1,-1.3697977E-1,6.109339E-1,-1.04550704E-1,1.1179198E0,-1.0619859E-1,-8.008447E-1,-1.6829695E-1,4.737913E-1,-6.528895E-1,2.763868E-2,1.3676317E0,6.8074934E-2,-3.8980493E-1,-4.0874487E-1,4.3231884E-1,1.5553774E0,4.528193E-1,1.6853031E0,8.625884E-1,1.3093536E0,1.8032867E-1,5.2237906E-2,1.6460836E-1,6.094791E-3,-1.1933559E-1,-3.47668E-2,-1.3433242E-1,-1.0929044E-1,-8.06982E-1,-1.09582976E-1,-6.722968E-3,-1.182509E-1,1.01306595E-1,9.950416E-1,-7.345396E-2,1.10671185E-2,-9.4395876E-1,1.4921969E0,3.2708973E-1,-9.297945E-2,8.303523E-2,-8.524112E-1,2.9808605E-2,2.595744E-1,-6.901872E-1,-1.9291298E-1,7.1656483E-1,8.297541E-2,-9.952484E-1,-5.7344276E-1,5.092872E-1,1.6556399E-1,-3.042361E-3,1.1531657E0,-3.5296053E-2,-7.017136E-1,8.933116E-3,4.43889E-2,-9.038248E-2,9.0162534E-1,1.14513926E-1,3.835434E-2,1.7658171E-1,-5.855482E-1,1.3401204E-1,1.8434474E-1,3.628544E-2,1.165274E0,-2.1919644E-2,-1.6483482E-3,1.6024297E-1,-5.868786E-1,1.1168516E0,5.496651E-1,-6.125134E-1,-2.9958016E-1,-9.5423007E-1,8.208635E-2,-6.544873E-2,-3.6811303E-2,5.187276E-2,-4.0053096E-2,1.24901734E-1,-3.3189233E-2,2.7029604E-2,2.7075594E-3,-1.15046374E-1,4.2832192E-2,1.7067668E-1,-5.3614367E-2,1.0418426E-1,-9.712798E-2,-2.2635994E-2,7.0622526E-2,-5.501619E-2,-1.1610209E-1,1.8927446E-2,8.475553E-2,-8.81439E-2,1.471261E-1,1.6679661E-2,-2.617134E-2,-1.2702088E-1,2.0006135E-2,-1.0360501E-1,1.1730482E-1,-6.115215E-2,1.4008497E-1,3.6181174E-2,-2.7949262E-2,5.9826445E-2,-1.119129E-1,-9.115089E-3,1.2341576E-1,-3.9837163E-2,1.1103193E-2,1.4458731E-1,1.299933E-1,-9.3262745E-3,-8.907311E-2,-1.5274798E-3,4.611049E-2,1.5268682E-1,-1.1952374E-1,5.9350323E-2,5.3145564E-3,1.5161291E-1,1.0190588E-1,-1.5098459E-2,-1.08316146E-1,3.2460302E-2,-7.631012E-2,1.4202486E-1,-4.7910195E-2,-1.1695098E-1],"categories":[],"categories_nodes":[],"categories_segments":[],"categories_sizes":[],"default_left":[0,0,1,0,0,1,0,0,0,0,0,0,0,0,0,0,0,0,1,0,0,0,0,1,0,0,0,0,0,0,0,0,0,0,0,0,0,0,0,0,0,0,0,1,1,0,0,0,0,0,0,0,0,0,0,0,0,0,0,0,0,0,0,0,0,0,0,0,0,0,0,0,0,0,0,0,0,0,0,0,0,0,0,0,0,0,0,0,0,0,1,0,0,0,1,0,0,0,0,0,0,0,0,0,0,0,0,0,0,0,0,0,0,0,0,0,0,0,0,0,0,0,0,0,0,1,0,0,0,0,0,0,0,1,0,0,0,0,0,0,0,0,0,0,0,0,0,0,0,0,0,0,0,0,0,0,0,0,0,0,0,1,0,1,0,0,0,0,0,0,0,0,0,0,0,0,0,0,0,0,0,0,0,0,0,0,0,0,0,0,0,0,0,0,0,0,0,0,0,0,0,0,0,0,0,0,0,0,0,0,0,0,0,0,0,0,0,0,0,0,0,0,0],"id":2,"left_children":[1,3,5,7,9,11,13,-1,-1,-1,15,17,19,21,23,25,-1,27,29,31,33,35,-1,37,39,-1,-1,-1,41,43,45,47,49,-1,51,53,55,57,-1,59,61,-1,63,65,67,69,71,-1,73,75,77,-1,-1,-1,-1,79,-1,-1,-1,81,83,-1,85,87,-1,89,91,93,95,97,99,101,103,105,107,-1,-1,109,-1,111,-1,113,115,-1,117,-1,-1,119,-1,121,123,125,127,129,131,133,135,137,139,141,143,145,147,149,151,153,155,157,159,-1,-1,-1,-1,-1,-1,161,163,-1,165,-1,167,169,-1,171,173,175,177,-1,-1,179,-1,181,183,185,187,-1,189,191,193,-1,-1,195,197,199,201,-1,-1,203,205,-1,-1,207,-1,-1,-1,209,-1,-1,-1,211,213,215,217,219,221,-1,-1,-1,-1,-1,-1,-1,-1,-1,-1,-1,-1,-1,-1,-1,-1,-1,-1,-1,-1,-1,-1,-1,-1,-1,-1,-1,-1,-1,-1,-1,-1,-1,-1,-1,-1,-1,-1,-1,-1,-1,-1,-1,-1,-1,-1,-1,-1,-1,-1,-1,-1,-1,-1,-1,-1,-1,-1],"loss_changes":[1.9273338E1,7.339548E0,1.3110107E1,1.863816E0,1.6098633E0,2.2627085E1,1.4070475E1,0E0,0E0,0E0,6.6610336E-1,1.3012145E1,7.0136833E0,8.008133E0,7.8420124E0,1.5720664E0,0E0,6.072748E0,7.848766E0,5.506487E0,3.850376E0,5.2506647E0,0E0,3.1103263E0,3.9684296E0,0E0,0E0,0E0,4.386875E0,9.734616E0,7.755678E0,1.976448E0,1.2959325E1,0E0,3.125796E0,9.0531826E-2,3.3558943E0,1.7430558E0,0E0,3.1976395E0,5.341989E0,0E0,1.5640965E0,5.7271404E0,7.066535E0,8.009031E0,5.0620823E0,0E0,2.1501312E0,2.7141557E0,9.4609547E-1,0E0,0E0,0E0,0E0,1.1160269E0,0E0,0E0,0E0,1.9609375E0,6.5549145E0,0E0,9.0531826E-2,4.8936844E-1,0E0,4.800122E0,3.14145E0,6.1523113E0,7.4806595E0,6.5897226E0,3.7546315E0,3.2182171E0,2.5138874E0,9.2290306E-1,4.232961E0,0E0,0E0,5.211935E-1,0E0,1.5970173E0,0E0,2.509098E-1,2.6487408E0,0E0,1.9744711E0,0E0,0E0,2.5698464E0,0E0,6.5381365E0,5.509358E0,1.8786287E0,3.565146E0,2.366024E0,6.4972363E0,2.9411001E0,5.3678856E0,2.787733E0,2.9316711E0,4.762646E0,3.912346E0,2.7068636E0,4.86269E0,8.445616E-1,6.1646724E0,1.2551479E0,2.6751118E0,2.6119614E0,6.677881E0,0E0,0E0,0E0,0E0,0E0,0E0,2.9098485E0,2.5313015E0,0E0,2.716348E0,0E0,8.399434E-1,3.749076E0,0E0,4.605129E0,1.4089508E0,4.437952E-1,2.9336116E0,0E0,0E0,2.448557E0,0E0,6.274374E0,5.6110005E0,4.623012E0,5.1095734E0,0E0,1.2254939E0,1.7477684E0,4.6716285E0,0E0,0E0,2.1666908E-1,6.2638726E0,4.392353E0,7.8635664E0,0E0,0E0,5.561262E0,5.29297E0,0E0,0E0,5.7577467E-1,0E0,0E0,0E0,8.064871E-1,0E0,0E0,0E0,4.488682E0,1.6687789E0,1.4322348E0,2.50075E0,9.006706E0,2.3821697E0,0E0,0E0,0E0,0E0,0E0,0E0,0E0,0E0,0E0,0E0,0E0,0E0,0E0,0E0,0E0,0E0,0E0,0E0,0E0,0E0,0E0,0E0,0E0,0E0,0E0,0E0,0E0,0E0,0E0,0E0,0E0,0E0,0E0,0E0,0E0,0E0,0E0,0E0,0E0,0E0,0E0,0E0,0E0,0E0,0E0,0E0,0E0,0E0,0E0,0E0,0E0,0E0,0E0,0E0,0E0,0E0,0E0,0E0],"parents":[2147483647,0,0,1,1,2,2,3,3,4,4,5,5,6,6,10,10,11,11,12,12,13,13,14,14,15,15,17,17,18,18,19,19,20,20,21,21,23,23,24,24,28,28,29,29,30,30,31,31,32,32,34,34,35,35,36,36,37,37,39,39,40,40,42,42,43,43,44,44,45,45,46,46,48,48,49,49,50,50,55,55,59,59,60,60,62,62,63,63,65,65,66,66,67,67,68,68,69,69,70,70,71,71,72,72,73,73,74,74,77,77,79,79,81,81,82,82,84,84,87,87,89,89,90,90,91,91,92,92,93,93,94,94,95,95,96,96,97,97,98,98,99,99,100,100,101,101,102,102,103,103,104,104,105,105,106,106,107,107,108,108,115,115,116,116,118,118,120,120,121,121,123,123,124,124,125,125,126,126,129,129,131,131,132,132,133,133,134,134,136,136,137,137,138,138,141,141,142,142,143,143,144,144,147,147,148,148,151,151,155,155,159,159,160,160,161,161,162,162,163,163,164,164],"right_children":[2,4,6,8,10,12,14,-1,-1,-1,16,18,20,22,24,26,-1,28,30,32,34,36,-1,38,40,-1,-1,-1,42,44,46,48,50,-1,52,54,56,58,-1,60,62,-1,64,66,68,70,72,-1,74,76,78,-1,-1,-1,-1,80,-1,-1,-1,82,84,-1,86,88,-1,90,92,94,96,98,100,102,104,106,108,-1,-1,110,-1,112,-1,114,116,-1,118,-1,-1,120,-1,122,124,126,128,130,132,134,136,138,140,142,144,146,148,150,152,154,156,158,160,-1,-1,-1,-1,-1,-1,162,164,-1,166,-1,168,170,-1,172,174,176,178,-1,-1,180,-1,182,184,186,188,-1,190,192,194,-1,-1,196,198,200,202,-1,-1,204,206,-1,-1,208,-1,-1,-1,210,-1,-1,-1,212,214,216,218,220,222,-1,-1,-1,-1,-1,-1,-1,-1,-1,-1,-1,-1,-1,-1,-1,-1,-1,-1,-1,-1,-1,-1,-1,-1,-1,-1,-1,-1,-1,-1,-1,-1,-1,-1,-1,-1,-1,-1,-1,-1,-1,-1,-1,-1,-1,-1,-1,-1,-1,-1,-1,-1,-1,-1,-1,-1,-1,-1],"split_conditions":[2.5912213E2,6.64647E0,8.141861E0,2.2098515E2,1.3652602E4,3.7281506E2,3.1643387E2,4.2352274E-2,-8.814322E-2,2.3843843E-2,5.87522E1,4.642953E0,3.0453623E4,7.6640606E0,1.3800768E2,4.404712E2,1.7387637E-1,5.2499743E0,6.6282563E0,7.7930393E0,3.7604614E2,2.844059E2,1.4050381E-1,3.4973465E2,3.1429379E4,-1.4082151E-2,1.1646668E-1,7.092326E-2,1.1949598E4,7.0098057E0,7.5976534E0,4.4953575E0,7.8673096E0,8.488478E-2,4.0037354E2,8.388323E0,2.7716338E4,6.456404E1,-4.9781922E-2,8.643088E0,6.19491E0,3.4183186E-2,2.4088843E2,3.522507E2,7.412779E1,3.0178723E2,2.8653473E4,8.718691E-3,6.64647E0,3.8030136E2,1.979711E4,-1.1950033E-1,3.52411E-2,3.4279656E-2,1.2373296E-1,4.299732E0,5.5517454E-2,1.4197089E-1,8.80095E-3,1.2715814E4,3.3691415E2,-7.66648E-2,1.7600653E2,2.1820295E4,-9.476479E-4,5.445326E0,7.9471176E1,1.9802109E2,2.4683723E4,2.4683723E4,2.3031215E4,1.1551216E4,2.001914E2,4.060856E2,6.0162746E1,2.8521879E-2,-1.1082764E-1,1.1551216E4,2.3536293E-2,2.9423482E0,-3.6926907E-3,8.322987E0,1.6977548E2,1.2980433E-1,4.3791864E2,1.2373296E-1,3.4279656E-2,1.6922854E4,-1.3697977E-1,6.627705E0,3.424477E2,4.033774E0,3.840479E0,3.9184848E4,6.1520687E1,3.4507458E0,1.6804076E2,7.2742124E0,7.6235E0,2.67404E0,6.686414E1,1.9908376E2,1.7679352E4,1.0066075E1,2.1196341E2,8.3559326E1,4.322325E0,1.2307109E1,7.4089856E0,5.2237906E-2,1.6460836E-1,6.094791E-3,-1.1933559E-1,-3.47668E-2,-1.3433242E-1,1.3711738E1,1.6304529E4,-1.09582976E-1,4.794025E2,-1.182509E-1,3.2755786E2,3.1168018E2,-7.345396E-2,1.33300905E1,1.1185554E1,4.916819E0,4.534233E0,-9.297945E-2,8.303523E-2,9.101885E0,2.9808605E-2,1.5088699E1,4.1049385E0,2.817717E2,3.91847E0,8.297541E-2,1.8582597E2,6.456404E1,7.808856E0,1.6556399E-1,-3.042361E-3,4.3145734E2,4.4780703E0,2.95677E4,3.4136467E0,4.43889E-2,-9.038248E-2,2.0143324E2,2.949661E2,3.835434E-2,1.7658171E-1,1.6710056E1,1.3401204E-1,1.8434474E-1,3.628544E-2,3.837543E2,-2.1919644E-2,-1.6483482E-3,1.6024297E-1,4.4748438E2,6.2036757E0,3.319542E2,4.4411664E2,3.6959073E2,1.3114365E1,8.208635E-2,-6.544873E-2,-3.6811303E-2,5.187276E-2,-4.0053096E-2,1.24901734E-1,-3.3189233E-2,2.7029604E-2,2.7075594E-3,-1.15046374E-1,4.2832192E-2,1.7067668E-1,-5.3614367E-2,1.0418426E-1,-9.712798E-2,-2.2635994E-2,7.0622526E-2,-5.501619E-2,-1.1610209E-1,1.8927446E-2,8.475553E-2,-8.81439E-2,1.471261E-1,1.6679661E-2,-2.617134E-2,-1.2702088E-1,2.0006135E-2,-1.0360501E-1,1.1730482E-1,-6.115215E-2,1.4008497E-1,3.6181174E-2,-2.7949262E-2,5.9826445E-2,-1.119129E-1,-9.115089E-3,1.2341576E-1,-3.9837163E-2,1.1103193E-2,1.4458731E-1,1.299933E-1,-9.3262745E-3,-8.907311E-2,-1.5274798E-3,4.611049E-2,1.5268682E-1,-1.1952374E-1,5.9350323E-2,5.3145564E-3,1.5161291E-1,1.0190588E-1,-1.5098459E-2,-1.08316146E-1,3.2460302E-2,-7.631012E-2,1.4202486E-1,-4.7910195E-2,-1.1695098E-1],"split_indices":[4,0,0,1,2,4,4,0,0,0,7,0,2,3,1,5,0,3,0,0,4,4,0,4,2,0,0,0,2,3,3,0,3,0,4,0,2,7,0,3,3,0,1,4,7,4,2,0,0,4,2,0,0,0,0,8,0,0,0,2,5,0,1,2,0,0,7,1,2,2,2,2,1,5,7,0,0,2,0,8,0,0,1,0,5,0,0,2,0,3,4,8,8,2,7,8,1,0,0,8,7,1,2,6,1,7,8,6,0,0,0,0,0,0,0,6,2,0,5,0,4,4,0,6,6,0,8,0,0,3,0,6,8,4,8,0,1,7,0,0,0,5,8,2,8,0,0,1,4,0,0,6,0,0,0,4,0,0,0,5,3,4,5,4,6,0,0,0,0,0,0,0,0,0,0,0,0,0,0,0,0,0,0,0,0,0,0,0,0,0,0,0,0,0,0,0,0,0,0,0,0,0,0,0,0,0,0,0,0,0,0,0,0,0,0,0,0,0,0,0,0,0,0],"split_type":[0,0,0,0,0,0,0,0,0,0,0,0,0,0,0,0,0,0,0,0,0,0,0,0,0,0,0,0,0,0,0,0,0,0,0,0,0,0,0,0,0,0,0,0,0,0,0,0,0,0,0,0,0,0,0,0,0,0,0,0,0,0,0,0,0,0,0,0,0,0,0,0,0,0,0,0,0,0,0,0,0,0,0,0,0,0,0,0,0,0,0,0,0,0,0,0,0,0,0,0,0,0,0,0,0,0,0,0,0,0,0,0,0,0,0,0,0,0,0,0,0,0,0,0,0,0,0,0,0,0,0,0,0,0,0,0,0,0,0,0,0,0,0,0,0,0,0,0,0,0,0,0,0,0,0,0,0,0,0,0,0,0,0,0,0,0,0,0,0,0,0,0,0,0,0,0,0,0,0,0,0,0,0,0,0,0,0,0,0,0,0,0,0,0,0,0,0,0,0,0,0,0,0,0,0,0,0,0,0,0,0,0,0,0,0,0,0,0,0,0,0,0,0],"sum_hessian":[4.631502E2,1.4227318E1,4.4892288E2,2.5704603E0,1.16568575E1,3.6322562E2,8.569726E1,1.2118468E0,1.3586136E0,1.4434283E0,1.0213429E1,3.1591904E2,4.73066E1,1.601686E1,6.96804E1,2.4847798E0,7.728649E0,2.052893E1,2.953901E2,4.1689877E1,5.616722E0,1.1283135E1,4.7337236E0,5.0557613E0,6.462463E1,1.2384517E0,1.2463281E0,1.7142308E0,1.8814701E1,1.6334149E2,1.320486E2,2.9789171E1,1.1900706E1,1.214966E0,4.4017563E0,2.4716067E0,8.811528E0,3.6650765E0,1.3906848E0,5.9873856E1,4.750778E0,1.8666072E0,1.6948093E1,7.551407E1,8.782742E1,8.5280624E1,4.6767975E1,2.1636982E0,2.7625473E1,5.8067045E0,6.094002E0,3.0209863E0,1.3807698E0,1.2358034E0,1.2358034E0,6.8623033E0,1.9492254E0,1.9922999E0,1.6727766E0,5.2642017E1,7.2318406E0,2.2791717E0,2.4716067E0,1.5744387E1,1.2037067E0,6.589706E1,9.617017E0,6.3562416E1,2.4265007E1,1.3776199E1,7.150443E1,3.675748E1,1.0010491E1,1.4589629E1,1.3035844E1,1.4162899E0,4.3904147E0,4.656561E0,1.4374409E0,4.9619617E0,1.9003415E0,9.1761E0,4.3465916E1,1.4909261E0,5.740915E0,1.2358034E0,1.2358034E0,5.320569E0,1.0423817E1,1.0236771E1,5.5660286E1,6.995928E0,2.621089E0,3.626852E1,2.7293898E1,1.6316803E1,7.9482036E0,7.6203804E0,6.155819E0,4.1097477E1,3.0406952E1,4.4620852E0,3.2295395E1,5.171236E0,4.839256E0,8.199933E0,6.3896956E0,5.6539874E0,7.381857E0,1.9469024E0,2.7096586E0,1.1688855E0,3.793076E0,1.1339198E0,8.04218E0,6.7598286E0,3.670609E1,2.6760368E0,3.0648777E0,3.0084612E0,2.312108E0,8.165986E0,2.0707846E0,4.978926E1,5.871024E0,4.146591E0,2.8493364E0,1.3984855E0,1.2226036E0,3.48572E1,1.4113197E0,1.527408E1,1.2019818E1,4.4103866E0,1.1906417E1,1.2239671E0,6.7242365E0,3.305118E0,4.315262E0,4.9515276E0,1.2042913E0,2.6912873E0,3.840619E1,1.6634754E1,1.3772199E1,1.6771214E0,2.784964E0,1.2297897E1,1.99975E1,1.2169923E0,3.954244E0,2.3865113E0,2.4527442E0,6.972202E0,1.2277317E0,4.9324174E0,1.4572781E0,1.194407E0,4.4595804E0,4.2629538E0,3.1189034E0,2.8870425E0,3.8727858E0,8.938716E0,2.7767372E1,1.2283313E0,1.8365464E0,1.14387E0,1.168238E0,1.1684453E0,6.9975405E0,2.1312521E1,2.847674E1,1.1819774E0,4.689047E0,1.1988202E0,2.947771E0,1.4038022E0,1.4455341E0,2.883151E1,6.025688E0,9.92647E0,5.34761E0,7.620118E0,4.3996997E0,1.6643412E0,2.746045E0,4.3115606E0,7.5948567E0,2.3654764E0,4.35876E0,1.4493175E0,1.8558006E0,2.6809509E0,1.6343112E0,1.4631472E0,1.2281402E0,2.8124767E1,1.0281423E1,9.385408E0,7.2493443E0,2.9295826E0,1.0842616E1,5.5050607E0,6.792836E0,2.1984403E0,1.7799059E1,1.1885304E0,1.197981E0,2.4454138E0,2.4870036E0,2.8047986E0,1.458155E0,1.1604578E0,1.9584455E0,1.4566948E0,1.4303477E0,2.4742818E0,1.398504E0,7.4792356E0,1.4594799E0,9.664047E0,1.8103325E1],"tree_param":{"num_deleted":"0","num_feature":"9","num_nodes":"223","size_leaf_vector":"1"}},{"base_weights":[7.7242064E-3,1.0178758E0,-2.6728878E-2,-3.03817E-1,1.3069729E0,4.920785E-2,-3.5002583E-1,3.9870925E-2,-8.451928E-2,2.237257E-2,1.4270718E0,-7.8580596E-2,4.728564E-1,3.4692526E-1,-5.5052483E-1,1.5863061E-1,6.1939605E-2,-2.6402804E-1,1.7854767E-1,2.6254162E-1,9.4782364E-1,-9.3995936E-2,1.1285754E0,4.4300577E-1,-6.351275E-1,-3.0895436E-1,8.319553E-1,3.046342E-1,-2.4508221E-1,7.0469266E-1,-6.207224E-2,1.1924965E0,-5.0606985E-2,9.567768E-1,-4.1966394E-1,-4.5697626E-2,1.5115601E-1,8.336518E-1,-4.7288693E-2,-7.052725E-1,1.7425534E-1,-8.996514E-1,-2.2783211E-1,-1.0824672E-2,1.2780206E0,5.1566696E-1,-3.4203255E-1,-5.1400036E-1,5.266734E-1,9.6284425E-1,-1.2471142E-1,-5.062755E-1,3.87393E-1,5.2554595E-1,1.3528018E0,-7.625298E-2,5.330065E-1,2.9281622E-2,1.194613E-1,-8.5802454E-1,2.738152E-1,1.2615182E-1,8.240183E-3,-7.6113516E-1,1.3757248E-1,-7.260112E-2,9.567768E-1,5.133543E-2,-1.0515823E0,-2.3520308E-2,-4.0904403E-1,4.6134137E-2,1.5823379E-1,6.299011E-1,-6.5361625E-1,-5.523115E-1,2.8207013E-1,-7.342419E-1,2.3347907E-1,-2.091309E-1,1.6072772E-1,1.578732E-1,4.956125E-1,-6.6919947E-1,4.0980923E-1,5.3472406E-1,-7.374978E-1,7.303063E-1,-4.87066E-1,-4.4226807E-2,8.843196E-1,1.4501972E0,2.2019263E-2,1.06537305E-1,-3.8324356E-2,9.626678E-3,-1.0622642E0,-7.077651E-2,1.0798661E-1,-3.3658582E-1,-8.924059E-1,-4.5680144E-1,9.622341E-2,1.194613E-1,2.9281622E-2,7.015665E-3,-1.1374736E0,1.0865151E-1,-6.454483E-2,-5.620073E-1,-2.7729624E-3,2.778735E-1,8.0544454E-1,4.225556E-2,-9.672519E-1,-6.838281E-1,4.3906458E-2,8.909652E-1,-5.5415535E-1,-1.165645E0,-2.0942804E-1,-5.970805E-1,1.15162544E-1,8.082655E-2,-7.015795E-1,1.0822997E0,-1.950296E-1,-5.7055196E-3,-9.357955E-2,8.110638E-2,-3.4289088E-2,1.00648955E-1,-1.6206807E-2,-2.2351532E-1,-1.11048E0,-3.9776847E-2,9.507791E-1,-1.00196674E-1,7.628125E-2,5.986295E-3,1.3685565E-1,1.5593134E-1,6.572732E-1,-1.17288806E-1,-3.0698368E-2,1.7726153E-2,-8.9983255E-1,-4.1696715E-1,-1.0018977E0,-7.692987E-2,6.3054594E-3,-4.2894316E-1,-1.2209189E0,-1.0612676E-1,1.0440878E-1,7.882726E-2,-6.211435E-1,6.627034E-1,-4.7247413E-1,-1.5332987E-2,7.939537E-1,5.3425765E-1,1.4342263E0,-1.2262406E-1,-2.6196134E-3,-1.6832419E-1,-8.991567E-1,1.2448471E-1,9.837871E-4,-9.085562E-2,6.6011394E-3,-1.2341079E0,-3.7985634E-2,2.5377944E-1,-9.2210956E-2,1.6259426E-3,-9.067836E-2,-8.367456E-3,-9.775742E-2,-2.3826443E-2,1.4744386E-1,5.949403E-1,-8.873265E-2,-7.0024496E-1,2.673709E-1,-3.3254743E-2,-1.1824968E0,1.3860922E0,3.7947938E-1,1.11092746E-1,-9.644998E-3,3.6511144E-1,-9.7418904E-2,-1.1856615E-1,1.0861016E-2,-9.278539E-2,2.088038E-2,-5.972441E-1,-1.15002E0,-7.905118E-2,1.3442687E-2,-2.9638125E-2,-1.276773E-1,7.41994E-2,-1.7706975E-2,-8.361624E-2,-2.2094714E-2,-7.51402E-2,1.1388254E-1,-5.3946497E-3,-1.1848807E-1,-6.721302E-2,3.3569627E-2,1.1969284E-1,-8.7431006E-2,2.343445E-2,1.0371443E-1,1.6176899E-1,2.9880434E-2,-7.8391366E-2,1.02541104E-1,3.6666375E-3,-1.0152679E-1,-1.323926E-1,-3.8711082E-2,9.772857E-2,-7.475831E-2,-4.466447E-2,1.2706564E-1,-9.751862E-2,-8.412346E-3,-5.451305E-2,8.871527E-2,-3.427304E-2,-1.2769331E-1,1.5485658E-1,3.930927E-2,-6.6861026E-2,8.9178406E-2,-8.047034E-2,6.768468E-2,5.2933067E-2,-8.8444956E-2,2.0491198E-2,-9.949587E-2,-1.2464048E-1,-3.292521E-2],"categories":[],"categories_nodes":[],"categories_segments":[],"categories_sizes":[],"default_left":[0,0,1,0,0,1,0,0,0,0,0,1,0,0,0,0,0,0,0,0,0,0,0,1,0,0,0,1,1,0,0,1,0,0,0,0,0,0,0,0,0,0,0,0,0,0,0,0,0,0,0,0,0,0,0,0,0,0,0,0,0,0,0,0,1,0,0,0,0,0,1,0,0,1,0,0,0,0,0,0,0,0,0,0,0,0,0,0,0,0,0,1,0,0,0,0,0,0,0,1,0,0,0,0,0,0,0,0,0,0,0,0,0,0,0,0,0,0,0,0,0,0,0,0,0,0,0,0,0,0,0,0,0,1,0,0,0,0,0,0,0,0,0,0,0,0,0,0,0,0,0,0,0,0,0,0,0,0,0,0,0,0,1,0,0,0,0,0,0,0,0,0,0,0,0,0,0,0,0,0,0,0,0,0,0,0,0,0,0,0,0,0,0,0,0,0,0,0,0,0,0,0,0,0,0,0,0,0,0,0,0,0,0,0,0,0,0,0,0,0,0,0,0,0,0,0,0,0,0,0,0,0,0,0,0,0,0,0,0,0,0,0,0,0,0,0,0],"id":3,"left_children":[1,3,5,7,9,11,13,-1,-1,-1,15,17,19,21,23,-1,-1,25,27,29,31,33,35,37,39,41,43,45,47,49,51,53,55,57,59,-1,-1,61,-1,63,65,67,69,-1,71,73,75,77,79,81,83,85,87,89,91,-1,93,-1,-1,95,97,-1,-1,99,101,-1,103,-1,105,107,109,-1,-1,111,113,115,117,119,121,123,-1,-1,125,127,129,131,133,135,137,-1,139,141,-1,-1,-1,-1,143,-1,-1,145,147,149,-1,-1,-1,-1,151,-1,153,155,157,159,161,-1,163,165,-1,167,169,171,173,175,-1,-1,177,179,181,-1,-1,-1,-1,-1,-1,183,185,-1,187,-1,-1,-1,-1,-1,189,-1,-1,191,193,195,197,-1,-1,199,201,203,-1,-1,205,207,209,211,213,215,217,-1,-1,219,221,-1,-1,-1,-1,223,-1,225,-1,-1,-1,-1,-1,-1,-1,227,-1,229,231,-1,233,235,237,-1,-1,239,-1,-1,-1,-1,241,243,245,-1,-1,-1,-1,-1,-1,-1,-1,-1,-1,-1,-1,-1,-1,-1,-1,-1,-1,-1,-1,-1,-1,-1,-1,-1,-1,-1,-1,-1,-1,-1,-1,-1,-1,-1,-1,-1,-1,-1,-1,-1,-1,-1,-1,-1,-1,-1,-1],"loss_changes":[1.6044916E1,6.2069674E0,1.0967464E1,1.683491E0,1.328392E0,1.9638906E1,1.2063428E1,0E0,0E0,0E0,4.597988E-1,1.3352137E1,8.146986E0,6.859351E0,5.8598976E0,0E0,0E0,8.258891E0,6.3515286E0,8.603334E0,6.26812E0,5.0045094E0,5.028737E0,2.4683447E0,3.6184998E0,7.31069E0,2.935741E0,1.2595724E1,5.979659E0,5.5432243E0,7.245585E0,1.4755402E0,2.883117E0,2.0091057E-1,3.56781E0,0E0,0E0,1.3186231E0,0E0,2.7817879E0,4.7188153E0,4.532773E0,5.1456532E0,0E0,4.1372252E-1,9.629913E0,3.173254E0,3.61305E0,6.380696E0,4.809078E0,2.281703E0,4.773126E0,5.7882633E0,2.3349524E0,1.4293785E0,0E0,2.2931895E0,0E0,0E0,1.458663E0,4.723692E0,0E0,0E0,2.6799412E0,2.5870028E0,0E0,2.0091057E-1,0E0,1.729454E0,3.0989351E0,4.58047E0,0E0,0E0,3.6928253E0,2.6475172E0,2.586658E0,3.7812188E0,3.4664688E0,4.8944445E0,3.2762918E0,0E0,0E0,5.2786107E0,5.6621313E-1,1.5166547E0,1.4405236E0,2.6859827E0,3.7143002E0,4.4346123E0,0E0,1.6817117E0,2.2257996E-1,0E0,0E0,0E0,0E0,1.2584352E-1,0E0,0E0,2.856851E0,1.6770744E0,5.722844E-1,0E0,0E0,0E0,0E0,4.200344E-1,0E0,3.1111236E0,4.7663765E0,6.9310346E0,3.4343352E0,6.3552876E0,0E0,1.2937684E0,1.610632E0,0E0,1.2722926E0,7.933966E-1,3.3435822E-3,3.0773454E0,6.900312E-1,0E0,0E0,6.309018E-1,3.9321337E0,4.132843E0,0E0,0E0,0E0,0E0,0E0,0E0,1.9864331E0,8.95462E-2,0E0,2.3378801E0,0E0,0E0,0E0,0E0,0E0,1.2945904E0,0E0,0E0,3.7046869E0,1.718801E0,2.0875137E0,1.2309303E0,0E0,0E0,7.6287156E-1,3.3104897E-1,3.9604259E0,0E0,0E0,4.2787876E0,7.034224E0,3.8108823E0,3.7768757E0,6.5675964E0,4.398224E0,2.0144863E0,0E0,0E0,5.144707E0,1.2288055E0,0E0,0E0,0E0,0E0,6.780052E-2,0E0,5.0807176E0,0E0,0E0,0E0,0E0,0E0,0E0,0E0,3.1556606E0,0E0,6.254847E-1,2.7555225E0,0E0,1.5682125E-1,3.848858E-1,4.009572E0,0E0,0E0,3.4349165E0,0E0,0E0,0E0,0E0,3.2101033E0,3.6028414E0,1.3570652E0,0E0,0E0,0E0,0E0,0E0,0E0,0E0,0E0,0E0,0E0,0E0,0E0,0E0,0E0,0E0,0E0,0E0,0E0,0E0,0E0,0E0,0E0,0E0,0E0,0E0,0E0,0E0,0E0,0E0,0E0,0E0,0E0,0E0,0E0,0E0,0E0,0E0,0E0,0E0,0E0,0E0,0E0,0E0,0E0,0E0,0E0,0E0,0E0],"parents":[2147483647,0,0,1,1,2,2,3,3,4,4,5,5,6,6,10,10,11,11,12,12,13,13,14,14,17,17,18,18,19,19,20,20,21,21,22,22,23,23,24,24,25,25,26,26,27,27,28,28,29,29,30,30,31,31,32,32,33,33,34,34,37,37,39,39,40,40,41,41,42,42,44,44,45,45,46,46,47,47,48,48,49,49,50,50,51,51,52,52,53,53,54,54,56,56,59,59,60,60,63,63,64,64,66,66,68,68,69,69,70,70,73,73,74,74,75,75,76,76,77,77,78,78,79,79,82,82,83,83,84,84,85,85,86,86,87,87,88,88,90,90,91,91,96,96,99,99,100,100,101,101,106,106,108,108,109,109,110,110,111,111,112,112,114,114,115,115,117,117,118,118,119,119,120,120,121,121,124,124,125,125,126,126,133,133,134,134,136,136,142,142,145,145,146,146,147,147,148,148,151,151,152,152,153,153,156,156,157,157,158,158,159,159,160,160,161,161,162,162,165,165,166,166,171,171,173,173,181,181,183,183,184,184,186,186,187,187,188,188,191,191,196,196,197,197,198,198],"right_children":[2,4,6,8,10,12,14,-1,-1,-1,16,18,20,22,24,-1,-1,26,28,30,32,34,36,38,40,42,44,46,48,50,52,54,56,58,60,-1,-1,62,-1,64,66,68,70,-1,72,74,76,78,80,82,84,86,88,90,92,-1,94,-1,-1,96,98,-1,-1,100,102,-1,104,-1,106,108,110,-1,-1,112,114,116,118,120,122,124,-1,-1,126,128,130,132,134,136,138,-1,140,142,-1,-1,-1,-1,144,-1,-1,146,148,150,-1,-1,-1,-1,152,-1,154,156,158,160,162,-1,164,166,-1,168,170,172,174,176,-1,-1,178,180,182,-1,-1,-1,-1,-1,-1,184,186,-1,188,-1,-1,-1,-1,-1,190,-1,-1,192,194,196,198,-1,-1,200,202,204,-1,-1,206,208,210,212,214,216,218,-1,-1,220,222,-1,-1,-1,-1,224,-1,226,-1,-1,-1,-1,-1,-1,-1,228,-1,230,232,-1,234,236,238,-1,-1,240,-1,-1,-1,-1,242,244,246,-1,-1,-1,-1,-1,-1,-1,-1,-1,-1,-1,-1,-1,-1,-1,-1,-1,-1,-1,-1,-1,-1,-1,-1,-1,-1,-1,-1,-1,-1,-1,-1,-1,-1,-1,-1,-1,-1,-1,-1,-1,-1,-1,-1,-1,-1,-1,-1],"split_conditions":[2.5912213E2,6.64647E0,8.141861E0,2.2098515E2,1.3652602E4,3.535294E2,3.199516E2,3.9870925E-2,-8.451928E-2,2.237257E-2,3.9184848E4,6.6282563E0,2.1026125E2,7.631407E0,1.3800768E2,1.5863061E-1,6.1939605E-2,2.559536E2,2.1789677E2,6.702496E0,2.685395E4,2.844059E2,5.141591E1,3.4973465E2,3.1429379E4,4.642953E0,3.6786861E0,3.283296E2,3.2251657E2,4.5963312E2,7.3031836E0,4.7364044E0,3.703001E0,4.033774E0,2.1626562E4,-4.5697626E-2,1.5115601E-1,6.456404E1,-4.7288693E-2,1.9334232E1,6.19491E0,5.2499743E0,7.0423265E0,-1.0824672E-2,6.725047E1,5.448575E2,3.4651654E2,2.4016791E2,4.2431335E0,6.5879335E0,2.310341E4,3.5617963E2,1.9236073E2,2.2098515E2,2.637646E2,-7.625298E-2,3.837543E2,2.9281622E-2,1.194613E-1,3.5417444E2,3.0178723E2,1.2615182E-1,8.240183E-3,1.250366E1,3.492406E2,-7.260112E-2,3.3347973E4,5.133543E-2,1.1694636E4,1.2858574E2,7.412779E1,4.6134137E-2,1.5823379E-1,6.091142E1,5.0747475E1,2.1429303E2,7.3627367E0,1.4037903E1,7.182128E1,3.0820806E0,1.6072772E-1,1.578732E-1,2.2535086E4,4.9616144E2,7.296282E0,6.931488E1,6.6299164E1,1.1551216E4,3.8921957E2,-4.4226807E-2,3.91847E0,8.023117E1,2.2019263E-2,1.06537305E-1,-3.8324356E-2,9.626678E-3,4.8697055E2,-7.077651E-2,1.0798661E-1,3.581931E2,3.4861853E2,1.7420088E4,9.622341E-2,1.194613E-1,2.9281622E-2,7.015665E-3,1.4527771E2,1.0865151E-1,5.7454065E2,2.8534995E2,1.8776562E2,4.4110575E0,7.7794595E0,4.225556E-2,2.0983934E2,5.87522E1,4.3906458E-2,1.7285042E1,4.2888235E2,8.754513E0,8.051538E0,3.4242501E0,1.15162544E-1,8.082655E-2,7.3422313E0,6.9367824E0,1.6977548E2,-5.7055196E-3,-9.357955E-2,8.110638E-2,-3.4289088E-2,1.00648955E-1,-1.6206807E-2,7.0153327E0,6.879405E0,-3.9776847E-2,1.9621324E4,-1.00196674E-1,7.628125E-2,5.986295E-3,1.3685565E-1,1.5593134E-1,6.412707E0,-1.17288806E-1,-3.0698368E-2,9.396149E0,1.1877582E1,6.673505E1,3.433053E2,-7.692987E-2,6.3054594E-3,4.137045E0,2.9383347E2,5.126763E0,1.0440878E-1,7.882726E-2,2.02887E2,3.8401855E2,2.4683723E4,3.690292E2,5.214484E0,2.4683723E4,3.1783752E2,-1.2262406E-1,-2.6196134E-3,5.4150448E1,1.7042757E2,1.2448471E-1,9.837871E-4,-9.085562E-2,6.6011394E-3,7.8865914E0,-3.7985634E-2,4.794025E2,-9.2210956E-2,1.6259426E-3,-9.067836E-2,-8.367456E-3,-9.775742E-2,-2.3826443E-2,1.4744386E-1,1.5380978E2,-8.873265E-2,1.7131554E2,3.9476797E2,-3.3254743E-2,7.250852E1,9.157616E0,4.205946E2,1.11092746E-1,-9.644998E-3,5.452162E0,-9.7418904E-2,-1.1856615E-1,1.0861016E-2,-9.278539E-2,2.2676564E2,3.8260632E0,5.6176117E2,-7.905118E-2,1.3442687E-2,-2.9638125E-2,-1.276773E-1,7.41994E-2,-1.7706975E-2,-8.361624E-2,-2.2094714E-2,-7.51402E-2,1.1388254E-1,-5.3946497E-3,-1.1848807E-1,-6.721302E-2,3.3569627E-2,1.1969284E-1,-8.7431006E-2,2.343445E-2,1.0371443E-1,1.6176899E-1,2.9880434E-2,-7.8391366E-2,1.02541104E-1,3.6666375E-3,-1.0152679E-1,-1.323926E-1,-3.8711082E-2,9.772857E-2,-7.475831E-2,-4.466447E-2,1.2706564E-1,-9.751862E-2,-8.412346E-3,-5.451305E-2,8.871527E-2,-3.427304E-2,-1.2769331E-1,1.5485658E-1,3.930927E-2,-6.6861026E-2,8.9178406E-2,-8.047034E-2,6.768468E-2,5.2933067E-2,-8.8444956E-2,2.0491198E-2,-9.949587E-2,-1.2464048E-1,-3.292521E-2],"split_indices":[4,0,0,1,2,4,4,0,0,0,2,0,1,3,1,0,0,1,1,0,2,4,7,4,2,0,8,4,4,5,3,0,8,8,2,0,0,7,0,6,3,3,3,0,7,5,4,1,8,3,2,4,1,1,1,0,4,0,0,5,4,0,0,6,4,0,2,0,2,1,7,0,0,7,7,1,0,6,7,8,0,0,2,5,3,7,7,2,4,0,8,7,0,0,0,0,5,0,0,4,5,2,0,0,0,0,1,0,5,5,1,8,3,0,1,7,0,6,5,3,3,8,0,0,0,3,1,0,0,0,0,0,0,0,0,0,2,0,0,0,0,0,0,0,0,0,6,7,4,0,0,0,5,0,0,0,1,5,2,5,8,2,4,0,0,7,1,0,0,0,0,0,0,5,0,0,0,0,0,0,0,1,0,1,5,0,7,3,5,0,0,3,0,0,0,0,1,8,5,0,0,0,0,0,0,0,0,0,0,0,0,0,0,0,0,0,0,0,0,0,0,0,0,0,0,0,0,0,0,0,0,0,0,0,0,0,0,0,0,0,0,0,0,0,0,0,0],"split_type":[0,0,0,0,0,0,0,0,0,0,0,0,0,0,0,0,0,0,0,0,0,0,0,0,0,0,0,0,0,0,0,0,0,0,0,0,0,0,0,0,0,0,0,0,0,0,0,0,0,0,0,0,0,0,0,0,0,0,0,0,0,0,0,0,0,0,0,0,0,0,0,0,0,0,0,0,0,0,0,0,0,0,0,0,0,0,0,0,0,0,0,0,0,0,0,0,0,0,0,0,0,0,0,0,0,0,0,0,0,0,0,0,0,0,0,0,0,0,0,0,0,0,0,0,0,0,0,0,0,0,0,0,0,0,0,0,0,0,0,0,0,0,0,0,0,0,0,0,0,0,0,0,0,0,0,0,0,0,0,0,0,0,0,0,0,0,0,0,0,0,0,0,0,0,0,0,0,0,0,0,0,0,0,0,0,0,0,0,0,0,0,0,0,0,0,0,0,0,0,0,0,0,0,0,0,0,0,0,0,0,0,0,0,0,0,0,0,0,0,0,0,0,0,0,0,0,0,0,0,0,0,0,0,0,0,0,0,0,0,0,0,0,0,0,0,0,0],"sum_hessian":[4.5924152E2,1.4205244E1,4.450363E2,2.540353E0,1.1664891E1,3.6107416E2,8.396213E1,1.2203149E0,1.3200382E0,1.4499288E0,1.0214962E1,2.780256E2,8.304854E1,1.8594791E1,6.536734E1,7.727448E0,2.487514E0,1.6151212E2,1.1651348E2,5.8636948E1,2.441159E1,1.2451033E1,6.1437583E0,4.79704E0,6.0570297E1,1.5584198E2,5.670141E0,9.000565E1,2.6507826E1,2.4328562E1,3.4308388E1,1.9450684E1,4.960907E0,2.4874258E0,9.963607E0,1.1576992E0,4.9860587E0,3.425704E0,1.371336E0,5.5858006E1,4.712294E0,1.7599562E1,1.3824242E2,2.0681953E0,3.6019459E0,6.801294E1,2.1992716E1,1.990568E1,6.602146E0,1.8431028E1,5.8975334E0,1.719163E1,1.7116756E1,4.5982127E0,1.4852471E1,2.0966883E0,2.8642187E0,1.2444623E0,1.2429634E0,5.9593315E0,4.0042753E0,1.7498627E0,1.6758412E0,5.2476852E1,3.38115E0,2.2248683E0,2.4874258E0,1.4776915E0,1.612187E1,6.551064E1,7.273177E1,1.6608375E0,1.9411082E0,6.2379967E1,5.6329713E0,1.6536203E1,5.4565125E0,1.5389067E1,4.516612E0,4.4074774E0,2.1946688E0,6.924501E0,1.1506527E1,2.79671E0,3.1008234E0,2.8859644E0,1.4305665E1,1.2413668E1,4.70309E0,1.1806405E0,3.417572E0,1.3418208E1,1.4342631E0,1.7086766E0,1.155542E0,1.14378E0,4.8155513E0,1.8605267E0,2.1437485E0,1.3235458E1,3.9241394E1,2.2241619E0,1.1569881E0,1.2429634E0,1.2444623E0,1.1596782E0,1.4962192E1,1.4265565E0,6.408408E1,5.2559505E1,2.0172274E1,2.1615685E1,4.0764282E1,1.1928133E0,4.440158E0,1.4873322E1,1.6628821E0,3.1195562E0,2.336956E0,7.776023E0,7.6130443E0,2.555019E0,1.9615932E0,1.2283639E0,3.1791134E0,5.9148684E0,5.5916586E0,1.2167907E0,1.5799193E0,1.9720241E0,1.1287994E0,1.4558289E0,1.4301356E0,6.6882663E0,7.6173987E0,1.8980268E0,1.051564E1,3.471371E0,1.2317191E0,1.6803124E0,1.7372597E0,1.0945445E1,2.4727635E0,3.7180605E0,1.0974909E0,8.719169E0,4.516289E0,8.245542E0,3.0995853E1,1.0894428E0,1.1347189E0,2.2234433E0,1.2738749E1,6.2638935E1,1.4451519E0,1.6879557E0,5.0871548E1,8.17664E0,1.1995633E1,1.4403024E1,7.212662E0,2.977312E1,1.099116E1,3.2442558E0,1.1959022E0,4.9071484E0,9.966173E0,1.9311652E0,1.188391E0,1.1912084E0,1.1457478E0,6.6280146E0,1.1480085E0,5.004365E0,2.608679E0,1.175179E0,1.3798399E0,1.3839223E0,1.7951912E0,1.4441059E0,4.4707623E0,2.677281E0,2.914378E0,3.1766934E0,3.5115726E0,1.1214132E0,6.4959855E0,5.1586757E0,5.3569646E0,1.2478076E0,1.2249559E0,6.9256153E0,1.7935536E0,3.3819797E0,1.1343096E0,3.2888913E0,4.9566507E0,9.65408E0,2.1341774E1,1.1087E0,1.1147434E0,1.0850228E0,1.1653726E1,4.1049843E0,5.853395E1,3.238321E1,1.848834E1,1.9139485E0,6.2626915E0,8.234008E0,3.761625E0,4.6980124E0,9.70501E0,6.0369477E0,1.1757143E0,1.9568687E1,1.0204434E1,9.096571E0,1.8945894E0,3.4640868E0,1.4430618E0,1.1755764E0,8.790597E0,5.483451E0,1.1445638E0,2.9192135E0,2.0851517E0,1.1868352E0,1.4904457E0,1.7935486E0,1.383145E0,1.5716586E0,1.9399141E0,1.1246207E0,5.371365E0,3.9524906E0,1.2061852E0,1.6586144E0,3.6983502E0,1.1244919E0,5.801123E0,3.4399996E0,1.5166509E0,3.360672E0,6.2934084E0,1.8634853E1,2.706921E0],"tree_param":{"num_deleted":"0","num_feature":"9","num_nodes":"247","size_leaf_vector":"1"}},{"base_weights":[8.137123E-3,9.370854E-1,-2.3600493E-2,-2.8925884E-1,1.2046336E0,4.6441615E-2,-3.2531065E-1,3.755397E-2,-8.1184946E-2,3.8483524E-1,1.3644828E0,-7.0788525E-2,4.3493935E-1,3.2251203E-1,-5.1391244E-1,1.12651445E-1,-5.3179037E-2,3.9405573E-2,1.4858323E-1,-2.3965183E-1,1.6163728E-1,2.4112234E-1,8.6945784E-1,-8.29827E-2,1.0357783E0,-7.924213E-1,-2.0641983E-1,-2.8192112E-1,7.7169424E-1,6.0502553E-1,5.8519796E-2,6.469697E-1,-5.822413E-2,1.0926772E0,-4.7665413E-2,9.0147E-1,-3.9386076E-1,-4.347323E-2,1.3916416E-1,-2.196479E-1,-9.539163E-1,8.004761E-1,-3.4185356E-1,-8.475583E-1,-2.0610514E-1,-2.268968E-2,1.1287949E0,-7.278911E-1,8.5610723E-1,-1.7429355E-1,3.7120122E-1,8.858805E-1,-1.2112643E-1,-4.749262E-1,3.5806116E-1,4.2929852E-1,1.2357357E0,6.343425E-2,-6.1630625E-1,2.6618173E-2,1.135266E-1,-8.1297094E-1,2.5286964E-1,-7.7783734E-1,3.9412162E-1,-1.5336171E-1,-1.0486736E0,1.1655369E-1,2.4286985E-2,4.5617345E-1,-5.202784E-1,4.8154365E-2,-9.960365E-1,-1.7253967E-2,-3.756631E-1,1.4012699E-1,2.4954734E-2,-1.00598566E-1,-4.4442522E-3,1.1827387E0,4.507415E-2,-4.8490774E-2,-1.0567968E0,1.7494135E-1,1.0068523E0,1.0965549E0,-1.1786678E-1,-6.451723E-1,3.863043E-1,5.0082177E-1,-6.972851E-1,6.225335E-1,-5.9031385E-1,-2.3232838E-2,9.081546E-2,2.6683519E-2,1.3670698E0,-9.1906E-2,2.3101943E-3,9.099419E-3,-1.0127263E0,-6.699052E-2,9.930217E-2,-1.0637068E-1,9.181674E-3,1.0120183E-1,-3.485443E-2,-8.482948E-2,5.2420076E-2,-1.1693743E0,-2.0957507E-1,-7.682028E-2,8.971992E-1,5.853262E-2,-7.957125E-1,-1.2202474E-1,-4.1226542E-1,2.76395E-2,-1.02606274E-1,-1.1249379E-1,-5.770865E-1,1.3117883E0,-8.106199E-3,-6.754466E-2,4.763734E-1,2.2648187E-1,-4.0355188E-1,-1.2190571E-1,-4.100151E-2,5.914376E-1,-1.757553E-1,-8.5960135E-5,1.2206486E0,1.3307052E0,1.3013947E-1,6.6805065E-2,-9.142826E-2,2.8640085E-3,-9.575517E-2,-5.598396E-2,1.086266E-1,9.505678E-2,-1.6213356E-2,-1.508277E-1,-1.016896E0,4.2296134E-2,8.788623E-1,-1.047557E-1,3.457199E-2,1.6513567E-1,6.064418E-1,-2.7353266E-2,-1.1251062E-1,-1.2059103E0,-2.7187372E-2,-8.371039E-2,3.806643E-2,1.3166415E-2,1.2372291E-1,8.6187804E-1,-6.5325046E-1,-9.20117E-1,3.379821E-2,6.2390726E-2,-9.033321E-1,4.974628E-1,-6.258369E-2,1.5404095E-1,-6.332884E-1,7.950788E-2,-6.3968617E-1,1.4646958E-1,4.0199097E-2,-2.3952711E-2,8.733195E-2,7.784102E-1,-1.14096634E-1,-6.823342E-1,1.8173723E-2,9.224211E-1,-7.688131E-2,-5.7750857E-1,1.4042716E-1,1.9277792E-2,1.4212749E0,1.4214716E0,2.4976196E-2,6.939661E-2,-5.2085944E-2,-1.01077735E-1,4.30439E-1,-1.2661424E-1,-8.16539E-3,7.496779E-1,-7.601442E-2,-2.7947E-4,1.0552171E0,1.0393305E0,-3.374641E-2,-4.0639532E-1,-1.2860763E-1,-2.1660268E-2,1.514919E-1,-1.0879344E-1,3.126757E-2,4.964079E-3,-1.0135225E0,-1.0238498E-1,-2.5095288E-2,-6.7575954E-2,1.0166837E-1,-1.0635493E-1,-3.3281904E-4,4.1669395E-2,-4.92811E-2,4.8803285E-2,-8.764579E-2,-7.176896E-2,5.2424353E-2,9.696597E-2,-4.4737842E-2,-5.394684E-2,6.452257E-2,-1.1536681E-1,-6.1180377E-3,7.9173245E-2,-4.6975095E-2,1.4572597E-1,2.647436E-2,-8.1457935E-2,1.2889841E-1,1.2152101E-2,-1.0532506E-1,-3.582816E-2,1.0780304E-1,5.0563492E-2,1.5872124E-1,2.6330817E-2,1.5324204E-1,-2.5052642E-2,1.3122456E-1,1.2141275E-1,-6.281038E-3,1.22443095E-1,1.0805423E-3,2.9750038E-2,1.2612315E-1,-7.769372E-2,1.6039385E-2,-1.1148911E-1,-4.45244E-3],"categories":[],"categories_nodes":[],"categories_segments":[],"categories_sizes":[],"default_left":[0,0,1,0,0,1,0,0,0,0,0,1,0,0,0,0,0,0,0,0,0,0,0,0,0,0,0,0,0,0,0,0,0,0,0,0,0,0,0,0,0,0,0,0,0,0,1,0,0,0,0,0,0,0,0,0,0,0,0,0,0,0,0,0,0,0,0,0,0,0,0,0,0,0,1,0,0,0,0,0,0,0,1,0,0,0,0,0,0,0,0,0,0,0,0,0,0,0,0,0,0,0,0,0,0,0,0,0,0,0,0,0,0,0,0,0,0,0,0,0,0,0,0,0,0,0,0,0,0,1,1,0,0,0,0,0,0,0,0,0,0,0,0,0,0,0,0,0,0,0,1,0,0,0,0,0,0,0,0,0,0,0,0,0,0,1,0,0,0,0,0,0,0,0,0,0,0,0,0,0,0,0,0,0,0,0,0,0,0,0,0,0,0,0,0,0,0,0,0,0,0,0,0,0,0,0,0,0,0,0,0,0,0,0,0,0,0,0,0,0,0,0,0,0,0,0,0,0,0,0,0,0,0,0,0,0,0,0,0,0,0,0,0,0,0,0,0,0,0,0,0],"id":4,"left_children":[1,3,5,7,9,11,13,-1,-1,15,17,19,21,23,25,-1,-1,-1,-1,27,29,31,33,35,37,39,41,43,45,47,49,51,53,55,57,59,61,-1,-1,63,65,67,69,71,73,-1,75,77,79,81,83,85,87,89,91,93,95,-1,97,-1,-1,99,101,103,105,107,109,-1,-1,111,113,-1,115,117,119,-1,-1,-1,-1,121,123,125,127,129,131,133,135,137,139,141,143,145,147,-1,-1,-1,149,-1,-1,-1,151,-1,-1,-1,-1,-1,-1,-1,-1,153,155,-1,157,159,161,-1,163,165,-1,167,169,171,-1,-1,173,175,177,-1,-1,179,181,-1,183,185,187,-1,-1,-1,-1,-1,-1,-1,-1,189,191,193,195,-1,-1,-1,197,-1,-1,199,-1,-1,-1,-1,-1,201,203,205,-1,-1,207,209,211,213,215,-1,217,-1,-1,-1,-1,219,221,223,225,227,229,231,233,-1,235,237,-1,-1,-1,-1,239,-1,-1,241,-1,-1,243,245,-1,247,-1,-1,-1,-1,-1,-1,249,-1,-1,-1,-1,-1,-1,-1,-1,-1,-1,-1,-1,-1,-1,-1,-1,-1,-1,-1,-1,-1,-1,-1,-1,-1,-1,-1,-1,-1,-1,-1,-1,-1,-1,-1,-1,-1,-1,-1,-1,-1,-1,-1,-1],"loss_changes":[1.3458989E1,5.2966566E0,9.348766E0,1.5233856E0,1.1226196E0,1.6396156E1,1.0348415E1,0E0,0E0,2.9407837E0,6.0733414E-1,1.09065E1,6.817025E0,5.69886E0,5.3973846E0,0E0,0E0,0E0,0E0,7.0907965E0,5.319294E0,7.215537E0,5.2422943E0,4.425006E0,4.324677E0,2.9096565E0,4.66655E0,6.475127E0,2.6516962E0,7.982933E0,7.062295E0,4.724763E0,6.227534E0,1.4085197E0,2.6871965E0,2.1702218E-1,3.1337028E0,0E0,0E0,3.292561E0,1.811882E0,5.5528665E-1,4.3801374E0,4.0330553E0,4.414292E0,0E0,8.758993E-1,7.205446E-1,4.970627E0,6.1415644E0,4.9817944E0,4.213232E0,2.070618E0,4.228825E0,4.8919954E0,1.8448057E0,1.7062054E0,0E0,7.4446726E-1,0E0,0E0,1.3186321E0,4.087474E0,1.316046E0,2.5622418E0,2.2921484E0,2.0926208E0,0E0,0E0,3.8477564E0,3.9119554E0,0E0,1.6595688E0,3.033783E0,3.7886105E0,0E0,0E0,0E0,0E0,2.3048668E0,2.3369007E0,4.9602036E0,2.2550106E-1,4.895073E0,2.0571823E0,3.4609013E0,3.272997E0,8.154962E-1,3.3269784E0,1.3171244E0,2.463037E0,2.1331325E0,2.2653842E0,0E0,0E0,0E0,2.0452557E0,0E0,0E0,0E0,1.6121054E-1,0E0,0E0,0E0,0E0,0E0,0E0,0E0,0E0,3.266735E-1,1.8450415E0,0E0,1.0765676E0,5.5658073E0,2.637638E0,0E0,3.6650352E0,2.7655404E0,0E0,4.644905E0,4.0249596E0,1.1208534E0,0E0,0E0,1.5285516E0,5.4920764E0,2.613549E0,0E0,0E0,3.4383364E0,2.4410555E0,0E0,1.349762E0,9.026909E-1,1.9179592E0,0E0,0E0,0E0,0E0,0E0,0E0,0E0,0E0,3.785406E0,2.0593786E0,3.7041345E0,1.5687456E0,0E0,0E0,0E0,2.5628161E0,0E0,0E0,6.87994E-1,0E0,0E0,0E0,0E0,0E0,3.5265543E0,2.5267599E0,1.4211769E0,0E0,0E0,1.00317955E-1,7.0855913E0,3.2588763E0,4.0236006E0,3.5050406E0,0E0,3.981079E0,0E0,0E0,0E0,0E0,3.0352216E0,6.3712397E0,3.836565E0,4.0628533E0,3.2224693E0,7.060516E0,2.9140255E0,5.623608E0,0E0,1.7459011E-1,1.0887203E0,0E0,0E0,0E0,0E0,3.151383E0,0E0,0E0,1.3736682E0,0E0,0E0,1.4703169E0,2.7609968E-1,0E0,7.931742E-1,0E0,0E0,0E0,0E0,0E0,0E0,1.3109112E0,0E0,0E0,0E0,0E0,0E0,0E0,0E0,0E0,0E0,0E0,0E0,0E0,0E0,0E0,0E0,0E0,0E0,0E0,0E0,0E0,0E0,0E0,0E0,0E0,0E0,0E0,0E0,0E0,0E0,0E0,0E0,0E0,0E0,0E0,0E0,0E0,0E0,0E0,0E0,0E0,0E0,0E0,0E0,0E0],"parents":[2147483647,0,0,1,1,2,2,3,3,4,4,5,5,6,6,9,9,10,10,11,11,12,12,13,13,14,14,19,19,20,20,21,21,22,22,23,23,24,24,25,25,26,26,27,27,28,28,29,29,30,30,31,31,32,32,33,33,34,34,35,35,36,36,39,39,40,40,41,41,42,42,43,43,44,44,46,46,47,47,48,48,49,49,50,50,51,51,52,52,53,53,54,54,55,55,56,56,58,58,61,61,62,62,63,63,64,64,65,65,66,66,69,69,70,70,72,72,73,73,74,74,79,79,80,80,81,81,82,82,83,83,84,84,85,85,86,86,87,87,88,88,89,89,90,90,91,91,92,92,96,96,100,100,109,109,110,110,112,112,113,113,114,114,116,116,117,117,119,119,120,120,121,121,124,124,125,125,126,126,129,129,130,130,132,132,133,133,134,134,143,143,144,144,145,145,146,146,150,150,153,153,159,159,160,160,161,161,164,164,165,165,166,166,167,167,168,168,170,170,175,175,176,176,177,177,178,178,179,179,180,180,181,181,182,182,184,184,185,185,190,190,193,193,196,196,197,197,199,199,206,206],"right_children":[2,4,6,8,10,12,14,-1,-1,16,18,20,22,24,26,-1,-1,-1,-1,28,30,32,34,36,38,40,42,44,46,48,50,52,54,56,58,60,62,-1,-1,64,66,68,70,72,74,-1,76,78,80,82,84,86,88,90,92,94,96,-1,98,-1,-1,100,102,104,106,108,110,-1,-1,112,114,-1,116,118,120,-1,-1,-1,-1,122,124,126,128,130,132,134,136,138,140,142,144,146,148,-1,-1,-1,150,-1,-1,-1,152,-1,-1,-1,-1,-1,-1,-1,-1,154,156,-1,158,160,162,-1,164,166,-1,168,170,172,-1,-1,174,176,178,-1,-1,180,182,-1,184,186,188,-1,-1,-1,-1,-1,-1,-1,-1,190,192,194,196,-1,-1,-1,198,-1,-1,200,-1,-1,-1,-1,-1,202,204,206,-1,-1,208,210,212,214,216,-1,218,-1,-1,-1,-1,220,222,224,226,228,230,232,234,-1,236,238,-1,-1,-1,-1,240,-1,-1,242,-1,-1,244,246,-1,248,-1,-1,-1,-1,-1,-1,250,-1,-1,-1,-1,-1,-1,-1,-1,-1,-1,-1,-1,-1,-1,-1,-1,-1,-1,-1,-1,-1,-1,-1,-1,-1,-1,-1,-1,-1,-1,-1,-1,-1,-1,-1,-1,-1,-1,-1,-1,-1,-1,-1,-1],"split_conditions":[2.5912213E2,6.64647E0,8.141861E0,2.2098515E2,1.7420088E4,3.535294E2,3.199516E2,3.755397E-2,-8.1184946E-2,4.060856E2,3.6312936E2,6.6282563E0,2.1026125E2,7.631407E0,7.1774454E0,1.12651445E-1,-5.3179037E-2,3.9405573E-2,1.4858323E-1,2.559536E2,3.0178723E2,6.702496E0,2.685395E4,2.844059E2,5.141591E1,8.458815E0,1.3800768E2,4.642953E0,3.1431747E2,1.5496611E4,7.4321795E0,4.5963312E2,7.3031836E0,6.09636E0,3.751473E2,1.2622032E1,2.1626562E4,-4.347323E-2,1.3916416E-1,8.247958E0,1.1009592E1,4.4320877E2,3.423594E2,5.2499743E0,7.0423265E0,-2.268968E-2,4.916819E0,1.408383E4,7.6647935E0,7.268765E0,2.8653473E4,8.663918E1,3.8530476E0,3.5617963E2,1.957173E2,1.5618135E4,2.1453299E2,6.343425E-2,3.857852E0,2.6618173E-2,1.135266E-1,3.5417444E2,3.0178723E2,7.1444916E1,3.7151743E2,9.422745E0,3.0681121E4,1.1655369E-1,2.4286985E-2,1.9195274E2,1.3550366E1,4.8154365E-2,4.589162E0,2.4330469E2,2.991316E2,1.4012699E-1,2.4954734E-2,-1.00598566E-1,-4.4442522E-3,1.68004E1,6.3744955E0,2.3031215E4,7.3166336E1,1.7382428E4,3.3739364E0,2.73171E4,1.3475159E1,7.105619E0,1.8466689E2,5.8788347E0,1.2531684E1,3.981819E2,3.8482196E2,-2.3232838E-2,9.081546E-2,2.6683519E-2,2.374611E2,-9.1906E-2,2.3101943E-3,9.099419E-3,3.322065E0,-6.699052E-2,9.930217E-2,-1.0637068E-1,9.181674E-3,1.0120183E-1,-3.485443E-2,-8.482948E-2,5.2420076E-2,1.9892681E1,4.892717E0,-7.682028E-2,3.2379486E2,1.9095735E2,1.9334232E1,-1.2202474E-1,4.808583E0,1.4625562E4,-1.02606274E-1,4.322325E0,2.8534995E2,2.1453299E2,-8.106199E-3,-6.754466E-2,6.518276E1,7.0891843E0,6.6299164E1,-1.2190571E-1,-4.100151E-2,3.2395648E2,6.3676952E1,-8.5960135E-5,7.558162E0,1.960043E1,3.3296008E0,6.6805065E-2,-9.142826E-2,2.8640085E-3,-9.575517E-2,-5.598396E-2,1.086266E-1,9.505678E-2,-1.6213356E-2,1.0829045E1,4.287441E0,3.564767E2,1.4625562E4,-1.047557E-1,3.457199E-2,1.6513567E-1,7.0465484E0,-2.7353266E-2,-1.1251062E-1,8.618654E0,-2.7187372E-2,-8.371039E-2,3.806643E-2,1.3166415E-2,1.2372291E-1,1.633854E2,4.6083193E0,7.2794333E0,3.379821E-2,6.2390726E-2,5.1201024E0,6.037604E1,1.5173471E4,2.1473189E2,1.4470054E4,7.950788E-2,9.820474E0,1.4646958E-1,4.0199097E-2,-2.3952711E-2,8.733195E-2,7.0098057E0,7.7440987E0,2.95677E4,3.7100532E0,4.4152954E2,4.4780703E0,7.9299045E0,2.4497873E4,1.9277792E-2,3.2727023E2,1.3383423E2,2.4976196E-2,6.939661E-2,-5.2085944E-2,-1.01077735E-1,3.7604614E2,-1.2661424E-1,-8.16539E-3,1.8270105E4,-7.601442E-2,-2.7947E-4,1.9169264E2,1.4512991E1,-3.374641E-2,1.4356101E1,-1.2860763E-1,-2.1660268E-2,1.514919E-1,-1.0879344E-1,3.126757E-2,4.964079E-3,5.695692E2,-1.0238498E-1,-2.5095288E-2,-6.7575954E-2,1.0166837E-1,-1.0635493E-1,-3.3281904E-4,4.1669395E-2,-4.92811E-2,4.8803285E-2,-8.764579E-2,-7.176896E-2,5.2424353E-2,9.696597E-2,-4.4737842E-2,-5.394684E-2,6.452257E-2,-1.1536681E-1,-6.1180377E-3,7.9173245E-2,-4.6975095E-2,1.4572597E-1,2.647436E-2,-8.1457935E-2,1.2889841E-1,1.2152101E-2,-1.0532506E-1,-3.582816E-2,1.0780304E-1,5.0563492E-2,1.5872124E-1,2.6330817E-2,1.5324204E-1,-2.5052642E-2,1.3122456E-1,1.2141275E-1,-6.281038E-3,1.22443095E-1,1.0805423E-3,2.9750038E-2,1.2612315E-1,-7.769372E-2,1.6039385E-2,-1.1148911E-1,-4.45244E-3],"split_indices":[4,0,0,1,2,4,4,0,0,5,5,0,1,3,3,0,0,0,0,1,4,0,2,4,7,0,1,0,4,2,3,5,3,3,4,6,2,0,0,0,6,5,5,3,3,0,0,2,0,3,2,7,8,4,1,2,1,0,8,0,0,5,4,7,4,6,2,0,0,1,6,0,8,1,4,0,0,0,0,6,3,2,7,2,8,2,6,3,1,3,6,5,4,0,0,0,1,0,0,0,8,0,0,0,0,0,0,0,0,6,3,0,5,1,6,0,8,2,0,8,5,1,0,0,7,0,7,0,0,4,7,0,3,6,8,0,0,0,0,0,0,0,0,6,8,5,2,0,0,0,0,0,0,0,0,0,0,0,0,1,8,3,0,0,8,7,2,1,2,0,3,0,0,0,0,3,0,2,8,5,8,3,2,0,5,1,0,0,0,0,4,0,0,2,0,0,1,6,0,6,0,0,0,0,0,0,5,0,0,0,0,0,0,0,0,0,0,0,0,0,0,0,0,0,0,0,0,0,0,0,0,0,0,0,0,0,0,0,0,0,0,0,0,0,0,0,0,0,0,0,0],"split_type":[0,0,0,0,0,0,0,0,0,0,0,0,0,0,0,0,0,0,0,0,0,0,0,0,0,0,0,0,0,0,0,0,0,0,0,0,0,0,0,0,0,0,0,0,0,0,0,0,0,0,0,0,0,0,0,0,0,0,0,0,0,0,0,0,0,0,0,0,0,0,0,0,0,0,0,0,0,0,0,0,0,0,0,0,0,0,0,0,0,0,0,0,0,0,0,0,0,0,0,0,0,0,0,0,0,0,0,0,0,0,0,0,0,0,0,0,0,0,0,0,0,0,0,0,0,0,0,0,0,0,0,0,0,0,0,0,0,0,0,0,0,0,0,0,0,0,0,0,0,0,0,0,0,0,0,0,0,0,0,0,0,0,0,0,0,0,0,0,0,0,0,0,0,0,0,0,0,0,0,0,0,0,0,0,0,0,0,0,0,0,0,0,0,0,0,0,0,0,0,0,0,0,0,0,0,0,0,0,0,0,0,0,0,0,0,0,0,0,0,0,0,0,0,0,0,0,0,0,0,0,0,0,0,0,0,0,0,0,0,0,0,0,0,0,0,0,0,0,0,0,0],"sum_hessian":[4.54756E2,1.4081111E1,4.4067493E2,2.5073195E0,1.15737915E1,3.583337E2,8.234121E1,1.2273588E0,1.2799606E0,2.444497E0,9.129294E0,2.7589847E2,8.243524E1,1.8406673E1,6.393454E1,1.224624E0,1.2198731E0,1.4867892E0,7.642505E0,1.597818E2,1.1611666E2,5.8082466E1,2.4352774E1,1.2298553E1,6.108119E0,3.272086E1,3.1213678E1,1.5406393E2,5.717871E0,2.0991087E1,9.512557E1,2.4162376E1,3.392009E1,1.9431828E1,4.920947E0,2.4957013E0,9.802853E0,1.1469649E0,4.961154E0,7.7157073E0,2.5005152E1,3.1184897E0,2.8095188E1,1.7006329E1,1.370576E2,1.6021782E0,4.115693E0,3.026309E0,1.7964777E1,5.478034E1,4.0345234E1,1.8312925E1,5.84945E0,1.6881163E1,1.7038929E1,4.1568546E0,1.5274972E1,2.1849058E0,2.736041E0,1.2466716E0,1.2490298E0,5.7922006E0,4.010652E0,3.9008174E0,3.8148897E0,2.9236066E0,2.2081547E1,1.2257495E0,1.8927402E0,4.849323E0,2.3245867E1,1.4835098E0,1.55228195E1,6.536111E1,7.169649E1,2.688747E0,1.426946E0,1.8156126E0,1.2106965E0,1.2480238E1,5.4845395E0,4.8868916E1,5.911424E0,3.1801582E1,8.5436535E0,1.5059631E1,3.2532947E0,2.7440748E0,3.105375E0,2.900588E0,1.3980574E1,1.3592095E1,3.4468343E0,1.9615047E0,2.19535E0,2.1852574E0,1.3089715E1,1.5600238E0,1.1760174E0,1.1468339E0,4.6453667E0,1.8273442E0,2.1833081E0,2.7678444E0,1.132973E0,1.8843942E0,1.9304955E0,1.3189068E0,1.6046999E0,1.8960546E1,3.1209998E0,1.0877249E0,3.7615979E0,7.74907E0,1.5496796E1,1.0427581E1,5.0952387E0,6.3507534E1,1.8535767E0,3.1759579E1,3.993691E1,1.1289473E1,1.1907655E0,1.8417206E0,3.642819E0,2.7744593E1,2.1124323E1,4.0184884E0,1.8929356E0,1.4223238E1,1.7578344E1,1.6696888E0,6.873965E0,1.1819069E1,3.2405624E0,1.7185638E0,1.534731E0,1.1569065E0,1.5871685E0,1.4055997E0,1.6997755E0,1.4697095E0,1.4308785E0,5.702532E0,8.278042E0,4.521663E0,9.070432E0,2.2356148E0,1.2112198E0,8.675995E0,4.41372E0,1.0662129E0,3.5791535E0,1.788869E1,1.0718554E0,1.3099967E0,1.8110031E0,1.5835792E0,2.1780186E0,3.5413249E0,4.2077456E0,1.4134189E1,1.3626066E0,1.5513358E0,3.5439026E0,9.503877E0,5.400366E1,2.1473822E1,1.0285756E1,1.2319486E0,3.8704964E1,9.142927E0,2.1465454E0,1.440829E0,2.20199E0,1.0096707E1,1.7647886E1,1.2345411E1,8.778911E0,9.258015E0,4.9652233E0,7.3775935E0,1.020075E1,1.4428214E0,5.4311433E0,1.0612881E1,1.206188E0,1.7011788E0,1.5393835E0,2.001907E0,3.700625E0,6.256771E0,2.021271E0,2.4381201E0,2.0835433E0,1.6759492E0,7.394482E0,2.956659E0,1.4570612E0,2.183321E0,1.570537E1,1.5876603E0,1.9536645E0,2.814747E0,1.3929982E0,1.2829406E0,1.2851249E1,2.5106819E0,1.0332206E0,2.8231804E0,6.680696E0,2.071002E0,5.1932655E1,1.5525525E1,5.9482975E0,1.6535983E0,8.632158E0,3.663329E1,2.071673E0,8.9147625E0,1.181945E0,1.14968815E1,6.151004E0,6.531777E0,5.813635E0,3.1547296E0,5.624181E0,4.4353333E0,4.8226814E0,3.486043E0,1.4791802E0,3.289194E0,4.088399E0,7.0622387E0,3.138512E0,1.4541749E0,3.9769685E0,1.2227002E0,9.390181E0,2.4920561E0,1.2085686E0,1.2367907E0,1.2013295E0,6.2151504E0,1.1793318E0,1.2197249E0,1.7369342E0,1.0960212E0,1.0873E0,1.1497875E1,1.353373E0],"tree_param":{"num_deleted":"0","num_feature":"9","num_nodes":"251","size_leaf_vector":"1"}},{"base_weights":[8.741624E-3,8.6954826E-1,-2.059692E-2,-2.760382E-1,1.1202083E0,4.3612916E-2,-3.009387E-1,3.538759E-2,-7.810091E-2,1.2160312E0,1.3013929E-2,-3.4047805E-2,5.5195844E-1,3.0101955E-1,-4.780833E-1,1.6652815E-2,1.3280998E0,-6.579063E-1,8.337411E-3,6.6105264E-1,-2.5011727E-1,1.2192389E-2,1.1919955E-1,-7.472482E-1,-1.8475649E-1,1.5308608E-1,3.3010516E-2,5.9714403E-2,-8.1228673E-1,-1.0918681E-1,1.4198421E-1,8.364351E-1,1.8809047E-1,4.8039326E-1,-8.6194016E-2,9.0875083E-1,-2.5218788E-1,-2.0445363E-1,-9.039448E-1,7.5298023E-1,-3.1398705E-1,3.1054351E-2,-9.6006954E-1,2.5855608E-2,-3.9742222E-1,7.968615E-2,7.270076E-1,8.8949656E-1,-5.2296612E-3,-7.0199126E-1,9.7780365E-1,-3.9476547E-2,1.049939E-1,2.4183087E-2,1.1456068E-1,-1.0614564E-1,7.661464E-2,7.457867E-2,-5.426379E-1,-1.4761329E-1,-9.962538E-1,1.01845875E-1,1.4976862E-2,4.2117903E-1,-4.8200333E-1,-1.1758963E0,-4.4202363E-1,-6.276078E-2,5.623218E-1,-5.7730794E-1,-2.0254483E-2,-6.557316E-2,3.4036508E-1,1.2022102E0,2.6776955E-1,9.98339E-3,9.279304E-1,2.5872445E-2,-1.01708256E-1,1.1649138E0,1.4599233E-2,-5.5018085E-1,4.985891E-1,-1.049781E-1,1.212642E-1,4.954489E-2,-8.2074344E-2,-1.114723E0,-2.0130149E-1,-7.3965155E-2,8.324267E-1,5.8284167E-2,-7.4397343E-1,-2.6837885E-2,-1.24659136E-1,-7.5590163E-1,5.3605378E-2,1.8831974E-2,-7.799321E-1,-1.7716965E-1,8.389326E-1,3.661369E-1,-6.96026E-1,6.144279E-1,-5.644552E-1,-5.555143E-1,3.3139303E-2,-4.0192616E-1,4.3020448E-1,1.808568E-2,1.4718615E-1,-4.3328062E-1,6.958256E-1,6.3944715E-1,1.127989E0,2.9202122E-2,1.337318E-1,-1.0156125E-1,4.0301275E-2,8.699843E-1,-5.331527E-2,7.383536E-2,-7.764456E-2,-1.1506828E0,-2.5925396E-2,3.856214E-2,-8.283044E-2,1.2336293E-2,1.1463978E-1,8.012011E-1,-6.163469E-1,-8.651395E-1,3.1686407E-2,-1.0440087E-1,1.880187E-2,-3.457233E-2,9.402692E-1,8.4821925E-2,-1.1618385E0,4.628044E-2,-7.402646E-2,1.114919E0,-8.559231E-2,-6.19101E-2,1.2742494E-1,-3.0018404E-1,-1.0248516E0,1.0020654E0,-6.1671276E-2,-9.1112196E-1,3.7811875E-1,6.7810476E-2,-7.8648245E-1,-5.165294E-1,1.3406275E-1,3.5170093E-2,-8.459809E-2,4.8064077E-1,-5.6265425E-2,3.666288E-2,-9.7949125E-2,1.10836565E-1,-4.137473E-2,9.5826244E-1,-9.2801094E-2,3.608313E-1,1.3059313E0,-1.7134382E-3,1.16398886E-1,-3.885553E-1,-1.2298502E-1,-2.0405812E-2,1.402751E-1,-1.0405139E-1,2.9312918E-2,4.680092E-3,-9.5637035E-1,4.3840968E-4,-1.0290048E-1,1.3088448E-1,2.67949E-2,8.042043E-2,-8.464716E-2,-3.82696E-2,-1.2547481E-1,1.3096623E-1,3.5067577E-2,-5.084529E-2,4.1709542E-2,-8.87702E-2,2.4710204E-2,-3.0367622E-2,-1.1457856E-1,1.4463067E-1,9.130466E-3,-1.1177758E-1,1.4051636E-2,9.5154405E-2,-3.816346E-2,1.9042095E-2,-1.07366085E-1,4.1550513E-2,-7.9297796E-2,7.748734E-2,2.6938987E-3,5.5467404E-2,-2.9686142E-2,4.9280774E-2,1.2954222E-1,5.1187158E-2,-7.3506765E-2,9.47029E-2,-5.7656992E-2,1.9709313E-2,1.4331117E-1,1.5417962E-2,-7.494453E-2,-3.3327576E-2,-1.1694618E-1],"categories":[],"categories_nodes":[],"categories_segments":[],"categories_sizes":[],"default_left":[0,0,1,0,0,1,0,0,0,0,0,0,0,0,0,0,0,0,1,0,1,0,0,0,0,0,0,0,0,0,0,0,0,1,0,0,0,0,0,0,0,0,0,1,0,0,0,1,0,0,0,0,0,0,0,0,0,0,1,1,0,0,0,0,0,0,0,1,0,0,0,0,0,0,0,0,0,0,0,0,0,0,0,0,0,0,0,0,1,0,0,0,0,0,0,0,0,0,0,0,0,1,0,0,0,0,1,0,0,0,0,0,0,0,0,0,0,0,0,0,0,0,0,0,0,0,0,0,0,0,0,0,0,0,0,0,0,0,0,0,0,0,1,0,0,0,0,0,0,0,0,0,0,0,0,0,0,0,0,0,0,0,0,0,0,0,0,0,0,0,0,0,0,0,0,0,0,0,0,0,0,0,0,0,0,0,0,0,0,0,0,0,0,0,0,0,0,0,0,0,0,0,0,0,0,0,0,0,0,0,0,0,0,0,0,0,0,0,0],"id":5,"left_children":[1,3,5,7,9,11,13,-1,-1,15,-1,17,19,21,23,-1,25,27,29,31,33,35,-1,37,39,-1,-1,-1,41,43,45,47,49,51,-1,53,55,57,59,61,63,-1,65,67,69,71,73,75,-1,77,79,-1,-1,-1,-1,-1,81,-1,83,85,87,-1,-1,89,91,93,95,97,99,101,103,105,107,109,111,-1,113,-1,-1,115,-1,117,119,-1,121,-1,-1,123,125,-1,127,129,131,-1,-1,133,-1,135,137,139,141,143,145,147,149,151,153,155,157,-1,-1,159,161,163,165,-1,-1,-1,-1,167,-1,-1,-1,169,-1,-1,-1,-1,-1,171,173,175,-1,-1,-1,177,179,181,183,-1,-1,185,187,-1,-1,189,191,193,-1,195,197,-1,199,201,203,-1,-1,205,-1,-1,-1,-1,-1,207,209,211,213,-1,-1,215,-1,-1,-1,-1,-1,-1,217,-1,-1,-1,-1,-1,-1,-1,-1,-1,-1,-1,-1,-1,-1,-1,-1,-1,-1,-1,-1,-1,-1,-1,-1,-1,-1,-1,-1,-1,-1,-1,-1,-1,-1,-1,-1,-1,-1,-1,-1,-1,-1],"loss_changes":[1.139581E1,4.5797796E0,7.8731656E0,1.3808463E0,1.0181408E0,1.4079129E1,8.8345585E0,0E0,0E0,1.0944729E0,0E0,8.199836E0,4.300437E0,4.9120216E0,4.8640823E0,0E0,1.5107632E0,4.30735E0,4.5887895E0,3.3160667E0,3.2671783E0,3.8955734E0,0E0,2.5973167E0,4.071373E0,0E0,0E0,0E0,3.2833633E0,6.0627184E0,4.9232407E0,1.4733334E0,9.555211E0,2.1848032E0,0E0,3.1369996E-1,3.4681602E0,3.1747375E0,1.6046467E0,5.0839233E-1,3.7256012E0,0E0,1.2850647E0,5.113675E0,3.3582582E0,4.7420588E0,2.5217037E0,7.7558327E-1,0E0,2.2349544E0,9.355202E-1,0E0,0E0,0E0,0E0,0E0,2.9148774E0,0E0,2.4626603E0,2.0961416E0,1.8651371E0,0E0,0E0,3.4031157E0,3.3949451E0,3.5786533E-1,2.3545265E0,5.4320664E0,3.266933E0,4.0174894E0,6.2447457E0,3.9300206E0,3.1580396E0,1.4185619E0,2.6760957E0,0E0,8.4615517E-1,0E0,0E0,4.606104E-1,0E0,2.402297E0,2.9511738E0,0E0,2.7339196E0,0E0,0E0,2.8891373E-1,1.827494E0,0E0,9.231591E-1,4.834013E0,2.3332844E0,0E0,0E0,1.6163979E0,0E0,4.170912E0,3.229518E0,2.1356456E0,2.9707723E0,4.734621E0,3.621169E0,4.6083765E0,3.5187993E0,4.4137845E0,3.8559654E0,2.0878434E0,2.2941866E0,0E0,0E0,1.9390836E0,2.8831797E0,3.2243114E0,1.5393543E0,0E0,0E0,0E0,0E0,1.3639472E0,0E0,0E0,0E0,6.0988045E-1,0E0,0E0,0E0,0E0,0E0,3.04136E0,2.2738295E0,1.2632418E0,0E0,0E0,0E0,3.1213543E0,7.997422E-1,3.2508464E0,7.867813E-4,0E0,0E0,8.429508E-1,9.601664E-1,0E0,0E0,5.077975E0,1.0538807E0,2.5950017E0,0E0,1.7643156E0,1.8090398E0,0E0,3.5525932E0,3.1109266E0,3.9925547E0,0E0,0E0,2.4094896E0,0E0,0E0,0E0,0E0,0E0,8.4383106E-1,2.31245E0,2.8291256E0,1.3496838E0,0E0,0E0,7.3416704E-1,0E0,0E0,0E0,0E0,0E0,0E0,1.384201E0,0E0,0E0,0E0,0E0,0E0,0E0,0E0,0E0,0E0,0E0,0E0,0E0,0E0,0E0,0E0,0E0,0E0,0E0,0E0,0E0,0E0,0E0,0E0,0E0,0E0,0E0,0E0,0E0,0E0,0E0,0E0,0E0,0E0,0E0,0E0,0E0,0E0,0E0,0E0,0E0,0E0,0E0],"parents":[2147483647,0,0,1,1,2,2,3,3,4,4,5,5,6,6,9,9,11,11,12,12,13,13,14,14,16,16,17,17,18,18,19,19,20,20,21,21,23,23,24,24,28,28,29,29,30,30,31,31,32,32,33,33,35,35,36,36,37,37,38,38,39,39,40,40,42,42,43,43,44,44,45,45,46,46,47,47,49,49,50,50,56,56,58,58,59,59,60,60,63,63,64,64,65,65,66,66,67,67,68,68,69,69,70,70,71,71,72,72,73,73,74,74,76,76,79,79,81,81,82,82,84,84,87,87,88,88,90,90,91,91,92,92,95,95,97,97,98,98,99,99,100,100,101,101,102,102,103,103,104,104,105,105,106,106,107,107,108,108,111,111,112,112,113,113,114,114,119,119,123,123,129,129,130,130,131,131,135,135,136,136,137,137,138,138,141,141,142,142,145,145,146,146,147,147,149,149,150,150,152,152,153,153,154,154,157,157,163,163,164,164,165,165,166,166,169,169,176,176],"right_children":[2,4,6,8,10,12,14,-1,-1,16,-1,18,20,22,24,-1,26,28,30,32,34,36,-1,38,40,-1,-1,-1,42,44,46,48,50,52,-1,54,56,58,60,62,64,-1,66,68,70,72,74,76,-1,78,80,-1,-1,-1,-1,-1,82,-1,84,86,88,-1,-1,90,92,94,96,98,100,102,104,106,108,110,112,-1,114,-1,-1,116,-1,118,120,-1,122,-1,-1,124,126,-1,128,130,132,-1,-1,134,-1,136,138,140,142,144,146,148,150,152,154,156,158,-1,-1,160,162,164,166,-1,-1,-1,-1,168,-1,-1,-1,170,-1,-1,-1,-1,-1,172,174,176,-1,-1,-1,178,180,182,184,-1,-1,186,188,-1,-1,190,192,194,-1,196,198,-1,200,202,204,-1,-1,206,-1,-1,-1,-1,-1,208,210,212,214,-1,-1,216,-1,-1,-1,-1,-1,-1,218,-1,-1,-1,-1,-1,-1,-1,-1,-1,-1,-1,-1,-1,-1,-1,-1,-1,-1,-1,-1,-1,-1,-1,-1,-1,-1,-1,-1,-1,-1,-1,-1,-1,-1,-1,-1,-1,-1,-1,-1,-1,-1],"split_conditions":[2.5912213E2,6.64647E0,8.141861E0,2.2098515E2,1.8281754E1,3.7281506E2,3.199516E2,3.538759E-2,-7.810091E-2,9.654125E0,1.3013929E-2,4.642953E0,3.0453623E4,8.435789E0,7.1774454E0,1.6652815E-2,9.824706E0,5.2499743E0,6.587465E0,7.7930393E0,5.713323E0,2.844059E2,1.1919955E-1,8.458815E0,1.3800768E2,1.5308608E-1,3.3010516E-2,5.9714403E-2,1.1949598E4,7.79784E0,3.308059E4,1.9892681E1,7.8673096E0,5.900435E1,-8.6194016E-2,8.388323E0,1.4254661E4,1.6804076E2,1.1009592E1,2.4897557E4,3.423594E2,3.1054351E-2,3.7253723E2,3.522507E2,7.412779E1,7.5976534E0,1.3373369E1,3.524368E1,-5.2296612E-3,3.8030136E2,4.3336887E0,-3.9476547E-2,1.049939E-1,2.4183087E-2,1.1456068E-1,-1.0614564E-1,3.0457324E2,7.457867E-2,3.2694397E2,3.6023285E2,3.0681121E4,1.01845875E-1,1.4976862E-2,1.9195274E2,1.3550366E1,5.84957E0,2.1647318E2,6.448931E0,1.790688E2,4.510402E1,1.8776562E2,1.1135312E1,1.1551216E4,6.037604E1,3.631107E0,9.98339E-3,3.9570117E0,2.5872445E-2,-1.01708256E-1,3.2616515E0,1.4599233E-2,4.3430595E0,9.396149E0,-1.049781E-1,6.3033566E0,4.954489E-2,-8.2074344E-2,1.9892681E1,3.566902E2,-7.3965155E-2,3.2379486E2,1.9095735E2,1.9334232E1,-2.6837885E-2,-1.24659136E-1,8.349207E0,5.3605378E-2,2.559536E2,3.6549167E2,3.581931E2,1.6710056E1,2.9378305E2,1.3711738E1,4.407566E0,8.961372E0,5.452162E0,4.475036E1,1.9908376E2,8.080415E0,1.808568E-2,1.4718615E-1,1.9535281E2,4.6083193E0,3.6697116E0,1.5136096E2,2.9202122E-2,1.337318E-1,-1.0156125E-1,4.0301275E-2,1.6922854E4,-5.331527E-2,7.383536E-2,-7.764456E-2,8.618654E0,-2.5925396E-2,3.856214E-2,-8.283044E-2,1.2336293E-2,1.1463978E-1,1.633854E2,4.6083193E0,7.2794333E0,3.1686407E-2,-1.0440087E-1,1.880187E-2,2.4330469E2,6.0123158E0,3.424477E2,5.6598477E0,4.628044E-2,-7.402646E-2,6.587465E0,7.519948E1,-6.19101E-2,1.2742494E-1,3.9265988E0,3.3739364E0,9.000677E1,-6.1671276E-2,2.3609879E2,9.2586565E0,6.7810476E-2,6.879405E0,3.1544748E2,1.2118475E1,3.5170093E-2,-8.459809E-2,5.5246277E2,-5.6265425E-2,3.666288E-2,-9.7949125E-2,1.10836565E-1,-4.137473E-2,3.8921957E2,1.4967733E1,1.8452646E4,3.2611536E2,-1.7134382E-3,1.16398886E-1,6.2297363E0,-1.2298502E-1,-2.0405812E-2,1.402751E-1,-1.0405139E-1,2.9312918E-2,4.680092E-3,1.499374E1,4.3840968E-4,-1.0290048E-1,1.3088448E-1,2.67949E-2,8.042043E-2,-8.464716E-2,-3.82696E-2,-1.2547481E-1,1.3096623E-1,3.5067577E-2,-5.084529E-2,4.1709542E-2,-8.87702E-2,2.4710204E-2,-3.0367622E-2,-1.1457856E-1,1.4463067E-1,9.130466E-3,-1.1177758E-1,1.4051636E-2,9.5154405E-2,-3.816346E-2,1.9042095E-2,-1.07366085E-1,4.1550513E-2,-7.9297796E-2,7.748734E-2,2.6938987E-3,5.5467404E-2,-2.9686142E-2,4.9280774E-2,1.2954222E-1,5.1187158E-2,-7.3506765E-2,9.47029E-2,-5.7656992E-2,1.9709313E-2,1.4331117E-1,1.5417962E-2,-7.494453E-2,-3.3327576E-2,-1.1694618E-1],"split_indices":[4,0,0,1,6,4,4,0,0,6,0,0,2,3,3,0,0,3,0,0,0,4,0,0,1,0,0,0,2,3,2,6,3,7,0,0,2,1,6,2,5,0,4,4,7,3,6,7,0,4,8,0,0,0,0,0,4,0,4,4,2,0,0,1,6,3,1,0,1,7,1,6,2,7,8,0,8,0,0,8,0,8,0,0,3,0,0,6,4,0,5,1,6,0,0,3,0,1,5,4,6,4,6,8,3,3,7,1,0,0,0,1,8,8,1,0,0,0,0,2,0,0,0,0,0,0,0,0,0,1,8,3,0,0,0,1,3,4,3,0,0,0,7,0,0,8,8,7,0,1,3,0,0,4,6,0,0,5,0,0,0,0,0,4,6,2,5,0,0,3,0,0,0,0,0,0,6,0,0,0,0,0,0,0,0,0,0,0,0,0,0,0,0,0,0,0,0,0,0,0,0,0,0,0,0,0,0,0,0,0,0,0,0,0,0,0,0,0,0],"split_type":[0,0,0,0,0,0,0,0,0,0,0,0,0,0,0,0,0,0,0,0,0,0,0,0,0,0,0,0,0,0,0,0,0,0,0,0,0,0,0,0,0,0,0,0,0,0,0,0,0,0,0,0,0,0,0,0,0,0,0,0,0,0,0,0,0,0,0,0,0,0,0,0,0,0,0,0,0,0,0,0,0,0,0,0,0,0,0,0,0,0,0,0,0,0,0,0,0,0,0,0,0,0,0,0,0,0,0,0,0,0,0,0,0,0,0,0,0,0,0,0,0,0,0,0,0,0,0,0,0,0,0,0,0,0,0,0,0,0,0,0,0,0,0,0,0,0,0,0,0,0,0,0,0,0,0,0,0,0,0,0,0,0,0,0,0,0,0,0,0,0,0,0,0,0,0,0,0,0,0,0,0,0,0,0,0,0,0,0,0,0,0,0,0,0,0,0,0,0,0,0,0,0,0,0,0,0,0,0,0,0,0,0,0,0,0,0,0,0,0],"sum_hessian":[4.4952405E2,1.3872087E1,4.3565198E2,2.4721987E0,1.1399888E1,3.5515195E2,8.050002E1,1.23315E0,1.2390487E0,1.0185832E1,1.2140558E0,3.0889465E2,4.6257286E1,1.814429E1,6.2355732E1,1.222576E0,8.963256E0,1.872745E1,2.901672E2,4.0873684E1,5.3836045E0,1.4467919E1,3.6763728E0,3.1710135E1,3.0645596E1,7.0059357E0,1.9573203E0,1.7371473E0,1.6990303E1,1.5449385E2,1.3567336E2,2.9256405E1,1.1617277E1,2.5517075E0,2.8318973E0,2.7397327E0,1.1728187E1,7.619856E0,2.4090279E1,3.127179E0,2.7518417E1,1.8480161E0,1.5142286E1,1.0582405E2,4.8669792E1,1.2364304E2,1.2030309E1,2.7607258E1,1.6491462E0,5.5137916E0,6.1034856E0,1.1269395E0,1.424768E0,1.2476642E0,1.4920685E0,2.744647E0,8.98354E0,1.683694E0,5.9361615E0,2.9030812E0,2.1187199E1,1.6934733E0,1.4337056E0,4.838867E0,2.267955E1,9.792638E0,5.3496485E0,9.1579475E1,1.4244581E1,3.2593884E1,1.6075912E1,7.9879745E1,4.37633E1,5.11729E0,6.9130187E0,1.4482856E0,2.6158974E1,1.4059452E0,4.1078463E0,4.655752E0,1.4477335E0,3.4922984E0,5.491241E0,3.035879E0,2.9002829E0,1.619697E0,1.2833842E0,1.8089174E1,3.0980234E0,1.0569254E0,3.781942E0,7.6596966E0,1.5019854E1,1.054337E0,8.738301E0,4.221931E0,1.1277177E0,8.309902E1,8.480454E0,3.975629E0,1.0268952E1,3.4100838E0,2.9183798E1,7.3614554E0,8.714457E0,1.2619179E1,6.726057E1,4.349776E0,3.941353E1,1.4178041E0,3.699486E0,2.6161711E0,4.296848E0,1.243053E1,1.3728443E1,1.2121879E0,3.4435642E0,2.3025231E0,1.1897752E0,4.1530514E0,1.3381896E0,1.8239833E0,1.0762994E0,1.7028296E1,1.0608783E0,1.7989988E0,1.2990245E0,1.588171E0,2.193771E0,3.5560696E0,4.103627E0,1.3645746E1,1.3741064E0,3.153402E0,1.0685287E0,7.94564E1,3.6426232E0,2.836237E0,5.6442175E0,1.9441503E0,2.0314786E0,7.749622E0,2.519331E0,1.7882328E0,1.621851E0,1.4110454E1,1.5073345E1,5.7401705E0,1.6212851E0,6.3956027E0,2.3188531E0,1.6847695E0,1.093441E1,9.795018E0,5.7465546E1,1.6898414E0,2.6599345E0,3.799911E1,1.4144173E0,1.194962E0,1.4212091E0,3.1330614E0,1.1637864E0,8.444988E0,3.9855413E0,3.154844E0,1.0573599E1,1.2681874E0,2.8848639E0,2.158347E0,1.4869949E1,1.5786848E0,1.9773847E0,2.7002075E0,1.4034196E0,1.2852666E0,1.236048E1,7.741913E1,2.0372667E0,1.7412735E0,1.9013495E0,1.6771663E0,1.1590705E0,1.1467295E0,4.497488E0,5.607144E0,2.1424778E0,1.3620807E0,1.1572502E0,6.5051217E0,7.6053314E0,2.6688807E0,1.2404464E1,3.4630032E0,2.277167E0,5.292669E0,1.1029341E0,1.177611E0,1.1412423E0,2.56066E0,8.37375E0,2.1256087E0,7.6694098E0,7.337777E0,5.012777E1,3.495711E1,3.041998E0,4.5816236E0,3.8633652E0,2.1574225E0,1.8281187E0,1.9347132E0,1.2201309E0,1.3503255E0,9.223273E0,1.0907582E0,1.0675888E0,3.8033178E0,8.557162E0],"tree_param":{"num_deleted":"0","num_feature":"9","num_nodes":"219","size_leaf_vector":"1"}},{"base_weights":[8.509009E-3,8.081596E-1,-1.8587273E-2,-2.639969E-1,1.0439302E0,4.0216807E-2,-2.7959475E-1,3.335954E-2,-7.5234905E-2,1.1848781E0,2.5099104E-2,-3.1519324E-2,5.11271E-1,2.1256695E-2,-6.029484E-1,1.5745295E-2,1.308677E0,-3.3341864E-1,4.4253375E-2,6.120194E-1,-2.3176968E-1,7.6589704E-1,-1.4448714E-1,-7.9205024E-1,-3.6156505E-2,1.45268E-1,4.480087E-2,8.9631075E-1,-4.9511352E-1,3.4222037E-1,-7.383824E-3,1.0362889E0,4.260279E-1,-8.16703E-2,4.6359637E-1,1.9247518E-1,1.2913592E-1,1.0942385E-1,-2.8112787E-1,-5.218969E-1,-1.1131872E0,3.6879018E-1,-6.857103E-1,-3.3525728E-2,1.2977563E0,-7.435886E-1,5.119585E-1,-2.7703235E-1,6.6674143E-1,4.4292447E-1,-5.616125E-2,1.2307537E0,5.37597E-3,-1.6675133E-1,6.3664305E-1,-3.4398098E-2,9.6456714E-2,5.9285995E-2,-1.8056282E-1,-4.814299E-1,4.4867408E-1,-8.096749E-1,-5.6363153E-3,-1.2400366E-1,1.1032884E-2,1.1944606E-1,-3.5329327E-1,-9.4625175E-2,-8.209653E-3,2.7298456E-2,1.5609176E-1,-2.9312116E-1,-1.0104052E0,-6.25972E-1,9.6162677E-1,-6.361277E-1,2.8287938E-1,-9.83549E-2,8.426564E-1,5.3109117E-2,1.1290014E0,1.750452E-1,-1.7150736E-1,4.457666E-1,1.5197489E-1,-6.9299585E-1,4.5763505E-1,7.241981E-1,-3.0674819E-2,-5.6350827E-2,2.8598765E-2,-5.6942606E-1,5.4288764E-2,-5.3046566E-2,7.429877E-1,-9.865793E-1,2.9040221E-2,6.188305E-1,-9.751328E-2,-9.224952E-2,2.8464705E-2,-7.8360087E-1,1.7286518E-1,-1.280519E0,-6.206093E-1,1.3735995E-2,-9.795337E-2,-3.409302E-2,1.1958715E0,2.408872E-1,-1.0125225E0,1.00160174E-1,-3.9091948E-1,-6.361004E-2,1.0019236E0,4.0411675E-1,-8.05105E-1,-1.4982942E-2,1.6616836E-1,-2.7495947E-1,4.1746244E-1,-2.481661E-1,1.5421195E-1,9.2695765E-2,-2.913405E-2,8.533015E-3,-9.1937727E-1,-2.0492306E-2,8.150402E-2,5.500433E-2,8.626993E-1,-2.355094E-1,-8.092289E-1,2.4022322E-2,1.2651223E-1,-1.2002875E-1,-1.7626742E-1,-4.281854E-1,1.5191144E-1,-9.990735E-1,-2.003115E-3,6.335775E-1,-3.3738178E-1,-3.3561204E-2,-1.3283464E-1,3.94467E-1,-8.613357E-1,-2.3291695E-4,1.4407705E0,7.1713306E-2,-3.7262924E-2,-1.22658454E-1,-1.8109363E-2,-8.9508094E-2,2.6762044E-2,1.2061539E0,2.8643578E-1,-2.89995E-1,8.425618E-1,6.5472657E-3,-1.1256794E-1,1.1947658E-1,-4.6663627E-1,9.432795E-1,1.0909767E-2,-1.2808827E-1,-4.8745015E-1,-5.083694E-1,5.052767E-1,-2.9647304E-2,-1.04251884E-1,8.138286E-2,-7.5568885E-2,-2.2864953E-2,9.7285503E-1,3.1324887E-1,-7.662472E-1,-5.693109E-3,-8.936148E-1,3.385122E-2,-3.738643E-2,4.294717E-2,-7.377901E-2,-7.045761E-2,4.3036765E-3,6.398458E-3,-1.2167318E-1,-3.8740918E-2,9.6870795E-2,5.288263E-2,-6.93272E-2,8.836077E-2,-3.0516524E-2,-1.0545013E-1,4.388137E-2,1.5932065E-1,4.164287E-2,-3.7547976E-3,1.3095735E-1,7.5192615E-2,-5.996418E-2,3.1380486E-2,-9.563119E-2,-3.4367315E-2,1.1269064E-1,-6.309426E-2,6.0009714E-2,3.0590633E-3,1.23417616E-1,-2.525197E-2,8.009919E-2,-3.661345E-2,1.7476197E-2,-1.0272404E-2,-8.411604E-2,-8.816847E-2,1.8900288E-2,2.229521E-2,1.308165E-1,5.2825835E-2,1.2887023E-1,8.583606E-2,-4.427162E-2,-1.01398826E-1,2.4090957E-2,-1.0944982E-1,-4.1666415E-2],"categories":[],"categories_nodes":[],"categories_segments":[],"categories_sizes":[],"default_left":[0,0,1,0,1,1,0,0,0,0,0,0,0,0,0,0,0,0,0,0,0,0,0,0,0,0,0,0,0,0,0,0,1,0,0,0,0,0,0,0,1,0,0,0,1,0,0,0,0,0,0,0,0,0,0,0,0,0,0,0,0,0,1,0,0,0,0,0,0,0,0,0,1,1,0,0,0,0,0,0,0,0,1,0,0,0,0,0,0,0,0,0,0,0,0,0,0,1,0,0,0,0,0,0,1,0,0,0,0,0,0,0,0,0,0,0,0,0,0,0,0,0,0,0,0,0,0,0,0,0,0,0,0,0,0,0,0,1,0,0,0,0,0,0,0,0,0,0,1,0,0,0,0,0,0,0,0,0,0,0,0,0,0,0,1,0,0,0,1,0,0,0,0,0,0,0,0,0,0,0,0,0,0,0,0,0,0,0,0,0,0,0,0,0,0,0,0,0,0,0,0,0,0,0,0,0,0,0,0,0,0,0,0,0,0,0,0,0,0,0,0,0,0,0,0,0,0],"id":6,"left_children":[1,3,5,7,9,11,13,-1,-1,15,-1,17,19,21,23,-1,25,27,29,31,33,35,37,39,41,-1,-1,43,45,47,49,51,53,-1,55,57,-1,-1,59,61,63,65,67,-1,69,71,73,75,77,79,81,83,-1,85,87,-1,-1,-1,89,91,93,95,97,-1,-1,-1,99,-1,-1,-1,-1,101,103,105,107,109,111,-1,113,115,117,119,121,123,-1,125,127,129,-1,-1,-1,131,-1,-1,133,135,-1,137,-1,-1,-1,139,141,143,145,-1,-1,-1,147,149,151,-1,153,-1,155,157,159,-1,-1,161,163,165,167,-1,-1,-1,169,-1,-1,171,173,175,177,179,-1,-1,181,183,-1,185,-1,187,189,-1,-1,191,193,-1,195,-1,-1,-1,-1,-1,-1,197,199,201,203,-1,-1,-1,205,207,209,211,213,215,217,-1,-1,-1,-1,-1,219,221,223,-1,225,-1,-1,-1,-1,-1,-1,-1,-1,-1,-1,-1,-1,-1,-1,-1,-1,-1,-1,-1,-1,-1,-1,-1,-1,-1,-1,-1,-1,-1,-1,-1,-1,-1,-1,-1,-1,-1,-1,-1,-1,-1,-1,-1,-1,-1,-1,-1,-1],"loss_changes":[9.673228E0,3.9742107E0,6.643453E0,1.2536356E0,1.0656576E0,1.1962616E1,7.7543654E0,0E0,0E0,1.0768833E0,0E0,7.054823E0,3.6439419E0,5.3177056E0,4.0859604E0,0E0,4.4790745E-1,1.2744453E1,3.8012342E0,2.8309908E0,2.9456031E0,2.1136513E0,6.290981E0,1.9121876E0,3.0546308E0,0E0,0E0,4.165234E0,1.4222844E1,7.517229E0,4.6683273E0,2.2153873E0,3.9177365E0,0E0,1.7563956E0,8.424835E-1,0E0,0E0,4.9864187E0,2.593946E0,2.0376015E0,4.7215047E0,6.206012E-1,0E0,1.1637325E0,5.085745E0,6.5066757E0,2.8445807E0,7.8643427E0,5.495838E0,5.1405497E0,1.573535E0,0E0,3.207326E0,2.0999174E0,0E0,0E0,0E0,7.5352675E-1,2.660624E0,2.5685217E0,2.4706435E0,5.003059E0,0E0,0E0,0E0,1.9397513E0,0E0,0E0,0E0,0E0,4.26436E0,2.123125E0,1.1801289E0,3.0516853E0,3.0108943E0,3.2345414E0,0E0,5.922016E0,4.632E0,5.342613E0,7.126657E0,3.2431471E0,1.7189932E0,0E0,9.8954606E-1,1.2622635E0,1.9082298E0,0E0,0E0,0E0,1.7722325E0,0E0,0E0,2.3038688E0,1.502099E0,0E0,5.393511E0,0E0,0E0,0E0,1.4577765E0,2.5840685E0,2.514534E-1,3.5857172E0,0E0,0E0,0E0,2.22365E0,1.2387259E0,8.559227E-1,0E0,1.484343E0,0E0,2.6712875E0,3.5348477E0,1.325144E0,0E0,0E0,7.066821E0,9.004591E0,2.9339027E0,6.088334E0,0E0,0E0,0E0,4.6982765E-3,0E0,0E0,3.4979227E0,2.3159437E0,3.634853E0,8.287678E-1,5.81452E-1,0E0,0E0,1.4180014E0,4.3491036E-1,0E0,1.6939983E0,0E0,2.3072236E0,2.042677E0,0E0,0E0,1.3757839E0,3.2382355E0,0E0,3.177719E-1,0E0,0E0,0E0,0E0,0E0,0E0,2.0749073E0,2.882701E0,2.2834222E0,2.7087889E0,0E0,0E0,0E0,4.087285E0,4.8411484E0,5.362679E0,5.1677117E0,4.606904E0,2.5568523E0,3.536592E0,0E0,0E0,0E0,0E0,0E0,1.5671368E0,3.0340972E0,1.7951503E0,0E0,7.311325E-1,0E0,0E0,0E0,0E0,0E0,0E0,0E0,0E0,0E0,0E0,0E0,0E0,0E0,0E0,0E0,0E0,0E0,0E0,0E0,0E0,0E0,0E0,0E0,0E0,0E0,0E0,0E0,0E0,0E0,0E0,0E0,0E0,0E0,0E0,0E0,0E0,0E0,0E0,0E0,0E0,0E0,0E0,0E0,0E0,0E0,0E0,0E0,0E0],"parents":[2147483647,0,0,1,1,2,2,3,3,4,4,5,5,6,6,9,9,11,11,12,12,13,13,14,14,16,16,17,17,18,18,19,19,20,20,21,21,22,22,23,23,24,24,27,27,28,28,29,29,30,30,31,31,32,32,34,34,35,35,38,38,39,39,40,40,41,41,42,42,44,44,45,45,46,46,47,47,48,48,49,49,50,50,51,51,53,53,54,54,58,58,59,59,60,60,61,61,62,62,66,66,71,71,72,72,73,73,74,74,75,75,76,76,78,78,79,79,80,80,81,81,82,82,83,83,85,85,86,86,87,87,91,91,94,94,95,95,97,97,101,101,102,102,103,103,104,104,108,108,109,109,110,110,112,112,114,114,115,115,116,116,119,119,120,120,121,121,122,122,126,126,129,129,130,130,131,131,132,132,133,133,136,136,137,137,139,139,141,141,142,142,145,145,146,146,148,148,155,155,156,156,157,157,158,158,162,162,163,163,164,164,165,165,166,166,167,167,168,168,174,174,175,175,176,176,178,178],"right_children":[2,4,6,8,10,12,14,-1,-1,16,-1,18,20,22,24,-1,26,28,30,32,34,36,38,40,42,-1,-1,44,46,48,50,52,54,-1,56,58,-1,-1,60,62,64,66,68,-1,70,72,74,76,78,80,82,84,-1,86,88,-1,-1,-1,90,92,94,96,98,-1,-1,-1,100,-1,-1,-1,-1,102,104,106,108,110,112,-1,114,116,118,120,122,124,-1,126,128,130,-1,-1,-1,132,-1,-1,134,136,-1,138,-1,-1,-1,140,142,144,146,-1,-1,-1,148,150,152,-1,154,-1,156,158,160,-1,-1,162,164,166,168,-1,-1,-1,170,-1,-1,172,174,176,178,180,-1,-1,182,184,-1,186,-1,188,190,-1,-1,192,194,-1,196,-1,-1,-1,-1,-1,-1,198,200,202,204,-1,-1,-1,206,208,210,212,214,216,218,-1,-1,-1,-1,-1,220,222,224,-1,226,-1,-1,-1,-1,-1,-1,-1,-1,-1,-1,-1,-1,-1,-1,-1,-1,-1,-1,-1,-1,-1,-1,-1,-1,-1,-1,-1,-1,-1,-1,-1,-1,-1,-1,-1,-1,-1,-1,-1,-1,-1,-1,-1,-1,-1,-1,-1,-1],"split_conditions":[2.5912213E2,6.64647E0,8.141861E0,2.2098515E2,8.137391E1,3.7281506E2,3.551648E2,3.335954E-2,-7.5234905E-2,9.654125E0,2.5099104E-2,5.8212614E0,3.0453623E4,1.6402634E2,8.063334E0,1.5745295E-2,3.9184848E4,5.3608956E0,2.991316E2,3.564767E2,4.2656192E2,1.5323636E2,2.844059E2,1.5303433E1,2.0717216E2,1.45268E-1,4.480087E-2,3.0664334E2,2.2248393E2,6.908853E0,3.1734924E2,1.5671718E1,4.4953575E0,-8.16703E-2,3.4298152E4,4.1184995E2,1.2913592E-1,1.0942385E-1,7.9777303E0,2.4041326E4,4.088559E2,1.4532854E1,4.0532E2,-3.3525728E-2,4.9658554E1,1.9486191E4,3.1544748E2,4.7205933E2,3.1238858E2,4.43576E0,1.7420088E4,6.033247E0,5.37597E-3,7.8673096E0,2.5146284E2,-3.4398098E-2,9.6456714E-2,5.9285995E-2,6.579702E1,1.9334232E1,1.9372112E2,1.4967733E1,3.656844E2,-1.2400366E-1,1.1032884E-2,1.1944606E-1,1.7548426E1,-9.4625175E-2,-8.209653E-3,2.7298456E-2,1.5609176E-1,3.4363583E2,3.1892657E2,6.657795E1,4.3667084E1,3.3285532E2,4.801431E2,-9.83549E-2,1.3766331E4,7.71578E1,2.7723416E2,1.9213753E2,7.932368E1,4.9844317E0,1.5197489E-1,1.6316725E2,1.4945296E4,3.7761896E2,-3.0674819E-2,-5.6350827E-2,2.8598765E-2,8.675193E0,5.4288764E-2,-5.3046566E-2,1.9692465E4,7.217409E0,2.9040221E-2,6.484691E1,-9.751328E-2,-9.224952E-2,2.8464705E-2,1.9488086E2,3.9020889E0,3.0820806E0,4.685341E1,1.3735995E-2,-9.795337E-2,-3.409302E-2,3.9401255E0,3.5584447E0,2.9378305E2,1.00160174E-1,5.0529593E2,-6.361004E-2,2.1473189E2,6.0281933E1,1.1383953E1,-1.4982942E-2,1.6616836E-1,1.4343135E2,7.163999E0,7.7489285E0,3.9891885E2,9.2695765E-2,-2.913405E-2,8.533015E-3,3.75672E0,-2.0492306E-2,8.150402E-2,6.823642E0,1.4343135E2,3.8315403E0,3.423594E2,8.068696E1,1.2651223E-1,-1.2002875E-1,2.0827984E4,5.032283E1,1.5191144E-1,1.4659023E2,-2.003115E-3,1.2883727E4,4.3107014E0,-3.3561204E-2,-1.3283464E-1,1.4213795E1,1.859941E1,-2.3291695E-4,8.152646E1,7.1713306E-2,-3.7262924E-2,-1.22658454E-1,-1.8109363E-2,-8.9508094E-2,2.6762044E-2,1.5751176E4,2.3565732E4,1.9856468E2,1.1659196E1,6.5472657E-3,-1.1256794E-1,1.1947658E-1,1.6922854E4,1.1676601E1,7.7930393E0,3.4992285E2,6.603725E1,7.4000196E0,7.555823E0,-2.9647304E-2,-1.04251884E-1,8.138286E-2,-7.5568885E-2,-2.2864953E-2,3.9570117E0,4.2342084E2,3.4510995E2,-5.693109E-3,2.1820295E4,3.385122E-2,-3.738643E-2,